3 -1 0 1 1 6.25 1 0.999731 -0.999756 -0.999687 0 0 0 0 
3 -1 0 1.0005 1.0005 6.27377 0.999893 0.999893 -0.999893 -0.999893 0.999711 0 0.00186635 0 
3 -1 0 1 1 6.25 0.999705 0.999811 -0.999692 -0.99999 0.999711 0 0.00186635 0 
3 -1 0 0.9995 0.9995 6.29262 0.999918 0.999918 -0.999917 -0.999917 0.999711 0 0.00186635 0 
3 -1 0 0.985104 0.985104 6.57255 0.999917 0.999916 -0.999917 -0.999916 1 0 0.00186743 0 
3 -1 0 0.984279 0.984279 6.58909 0.999879 0.99991 -0.999879 -0.99991 0.999999 0 0.00186831 0 
3 -1 0 0.982629 0.982629 6.62234 0.999879 0.999909 -0.999879 -0.999909 0.999999 0 0.00186771 0 
3 -1 0 0.979329 0.979329 6.68951 0.999878 0.999907 -0.999878 -0.999907 0.999998 0 0.00186858 0 
3 -1 0 0.974329 0.974329 6.79303 0.999874 0.999898 -0.999874 -0.999898 1 0 0.00186736 0 
3 -1 0 0.969329 0.969329 6.89869 0.99987 0.999892 -0.99987 -0.999892 1 0 0.0018673 0 
3 -1 0 0.964329 0.964329 7.00656 0.999865 0.999883 -0.999865 -0.999883 1 0 0.00186722 0 
3 -1 0 0.959329 0.959329 7.11668 0.999857 0.99987 -0.999857 -0.99987 1 0 0.00186711 0 
3 -1 0 0.954329 0.954329 7.22913 0.999848 0.999854 -0.999848 -0.999854 1 0 0.00186696 0 
3 -1 0 0.949329 0.949329 7.34396 0.999836 0.999834 -0.999836 -0.999834 1 0 0.00186677 0 
3 -1 0 0.944329 0.944329 7.46123 0.99982 0.999807 -0.99982 -0.999807 1 0 0.00186654 0 
3 -1 0 0.939329 0.939329 7.58101 0.999802 0.999776 -0.999802 -0.999776 1 0 0.00186626 0 
3 -1 0 0.934329 0.934329 7.70336 0.99978 0.999739 -0.99978 -0.999739 1 0 0.00186592 0 
3 -1 0 0.929329 0.929329 7.82837 0.999751 0.999691 -0.999751 -0.999691 1 0 0.00186551 0 
3 -1 0 0.924329 0.924329 7.95609 0.999721 0.999639 -0.999721 -0.999639 1 0 0.00186503 0 
3 -1 0 0.91933 0.91933 8.0866 0.999685 0.999578 -0.999685 -0.999578 1 0 0.00186447 0 
3 -1 0 0.91433 0.91433 8.21998 0.999639 0.999507 -0.999639 -0.999507 1 0 0.00186383 0 
3 -1 0 0.909331 0.909331 8.3563 0.999592 0.999426 -0.999592 -0.999426 1 0 0.00186309 0 
3 -1 0 0.904332 0.904332 8.49565 0.999538 0.999333 -0.999538 -0.999333 1 0 0.00186224 0 
3 -1 0 0.899333 0.899333 8.63811 0.99947 0.99921 -0.99947 -0.99921 1 0 0.00186128 0 
3 -1 0 0.894334 0.894334 8.78376 0.999401 0.999092 -0.999401 -0.999092 1 0 0.0018602 0 
3 -1 0 0.889336 0.889336 8.93269 0.999323 0.998959 -0.999323 -0.998959 1 0 0.00185899 0 
3 -1 0 0.884338 0.884338 9.085 0.999235 0.998856 -0.999235 -0.998856 1 0 0.00185763 0 
3 -1 0 0.879341 0.879341 9.24077 0.999137 0.998689 -0.999137 -0.998689 1 0 0.00185611 0 
3 -1 0 0.874345 0.874345 9.40011 0.999029 0.998504 -0.999029 -0.998504 1 0 0.00185443 0 
3 -1 0 0.869349 0.869349 9.5631 0.998919 0.998296 -0.998919 -0.998296 1 0 0.00185257 0 
3 -1 0 0.864354 0.864354 9.72985 0.998786 0.998069 -0.998786 -0.998069 1 0 0.00185052 0 
3 -1 0 0.85936 0.85936 9.90047 0.998641 0.997819 -0.998641 -0.997819 1 0 0.00184826 0 
3 -1 0 0.854368 0.854368 10.0751 0.998496 0.99755 -0.998496 -0.99755 1 0 0.00184579 0 
3 -1 0 0.849377 0.849377 10.2537 0.998321 0.99725 -0.998321 -0.99725 1 0 0.00184308 0 
3 -1 0 0.844388 0.844388 10.4366 0.998129 0.996922 -0.998129 -0.996922 1 0 0.00184012 0 
3 -1 0 0.839401 0.839401 10.6237 0.99794 0.996603 -0.99794 -0.996603 1 0 0.0018369 0 
3 -1 0 0.834416 0.834416 10.8153 0.997713 0.996213 -0.997713 -0.996213 1 0 0.0018334 0 
3 -1 0 0.829434 0.829434 11.0114 0.997467 0.995791 -0.997467 -0.995791 1 0 0.0018296 0 
3 -1 0 0.824456 0.824456 11.2121 0.997214 0.995231 -0.997214 -0.995231 1 0 0.00182548 0 
3 -1 0 0.819481 0.819481 11.4176 0.996926 0.994734 -0.996926 -0.994734 1 0 0.00182104 0 
3 -1 0 0.81451 0.81451 11.628 0.996614 0.994197 -0.996614 -0.994197 1 0 0.00181624 0 
3 -1 0 0.809544 0.809544 11.8434 0.996289 0.993748 -0.996289 -0.993748 1 0 0.00181108 0 
3 -1 0 0.804584 0.804584 12.0639 0.995927 0.993125 -0.995927 -0.993125 1 0 0.00180553 0 
3 -1 0 0.79963 0.79963 12.2896 0.995539 0.992455 -0.995539 -0.992455 1 0 0.00179957 0 
3 -1 0 0.794683 0.794683 12.5207 0.99514 0.991656 -0.99514 -0.991656 1 0 0.00179318 0 
3 -1 0 0.789744 0.789744 12.7573 0.994694 0.990888 -0.994694 -0.990888 1 0 0.00178635 0 
3 -1 0 0.784814 0.784814 12.9994 0.994216 0.990066 -0.994216 -0.990066 1 0 0.00177905 0 
3 -1 0 0.779895 0.779895 13.2472 0.993717 0.989248 -0.993717 -0.989248 1 0 0.00177126 0 
3 -1 0 0.774987 0.774987 13.5008 0.993173 0.988304 -0.993173 -0.988304 1 0 0.00176297 0 
3 -1 0 0.770092 0.770092 13.7603 0.992594 0.987297 -0.992594 -0.987297 1 0 0.00175416 0 
3 -1 0 0.765211 0.765211 14.0257 0.991988 0.986156 -0.991988 -0.986156 1 0 0.00174481 0 
3 -1 0 0.760347 0.760347 14.2971 0.991335 0.985014 -0.991335 -0.985014 1 0 0.00173489 0 
3 -1 0 0.7555 0.7555 14.5747 0.990642 0.983801 -0.990642 -0.983801 1 0 0.0017244 0 
3 -1 0 0.750673 0.750673 14.8584 0.989919 0.982624 -0.989919 -0.982624 1 0 0.00171332 0 
3 -1 0 0.745868 0.745868 15.1482 0.989144 0.981266 -0.989144 -0.981266 1 0 0.00170164 0 
3 -1 0 0.741087 0.741087 15.4443 0.988326 0.97983 -0.988326 -0.97983 1 0 0.00168933 0 
3 -1 0 0.736332 0.736332 15.7465 0.987459 0.978288 -0.987459 -0.978288 1 0 0.0016764 0 
3 -1 0 0.731606 0.731606 16.055 0.986553 0.976688 -0.986553 -0.976688 1 0 0.00166284 0 
3 -1 0 0.726911 0.726911 16.3697 0.985602 0.975003 -0.985602 -0.975003 1 0 0.00164863 0 
3 -1 0 0.72225 0.72225 16.6905 0.984593 0.973273 -0.984593 -0.973273 1 0 0.00163378 0 
3 -1 0 0.717625 0.717625 17.0173 0.98355 0.97142 -0.98355 -0.97142 1 0 0.00161829 0 
3 -1 0 0.713039 0.713039 17.3501 0.982461 0.96948 -0.982461 -0.96948 1 0 0.00160215 0 
3 -1 0 0.708495 0.708495 17.6888 0.981317 0.967451 -0.981317 -0.967451 1 0 0.00158538 0 
3 -1 0 0.703995 0.703995 18.0333 0.980135 0.965334 -0.980135 -0.965334 1 0 0.00156798 0 
3 -1 0 0.699543 0.699543 18.3833 0.978907 0.963127 -0.978907 -0.963127 1 0 0.00154996 0 
3 -1 0 0.69514 0.69514 18.7389 0.977625 0.960833 -0.977625 -0.960833 1 0 0.00153134 0 
3 -1 0 0.69079 0.69079 19.0997 0.976308 0.958452 -0.976308 -0.958452 1 0 0.00151214 0 
3 -1 0 0.686495 0.686495 19.4656 0.974948 0.955983 -0.974948 -0.955983 1 0 0.00149238 0 
3 -1 0 0.682257 0.682257 19.8365 0.973534 0.953401 -0.973534 -0.953401 1 0 0.00147207 0 
3 -1 0 0.678078 0.678078 20.212 0.972093 0.950771 -0.972093 -0.950771 1 0 0.00145125 0 
3 -1 0 0.67396 0.67396 20.5922 0.970616 0.948057 -0.970616 -0.948057 1 0 0.00142994 0 
3 -1 0 0.669906 0.669906 20.9766 0.969108 0.945272 -0.969108 -0.945272 1 0 0.00140817 0 
3 -1 0 0.665915 0.665915 21.3652 0.967558 0.942394 -0.967558 -0.942394 1 0 0.00138597 0 
3 -1 0 0.66199 0.66199 21.7577 0.965974 0.93944 -0.965974 -0.93944 1 0 0.00136337 0 
3 -1 0 0.658132 0.658132 22.154 0.964364 0.936392 -0.964364 -0.936392 1 0 0.00134041 0 
3 -1 0 0.654342 0.654342 22.5539 0.962719 0.93329 -0.962719 -0.93329 1 0 0.00131712 0 
3 -1 0 0.650619 0.650619 22.9572 0.961045 0.930122 -0.961045 -0.930122 1 0 0.00129352 0 
3 -1 0 0.646964 0.646964 23.3638 0.959347 0.926961 -0.959347 -0.926961 1 0 0.00126966 0 
3 -1 0 0.643378 0.643378 23.7735 0.957624 0.923681 -0.957624 -0.923681 1 0 0.00124556 0 
3 -1 0 0.639861 0.639861 24.1863 0.95588 0.920344 -0.95588 -0.920344 1 0 0.00122126 0 
3 -1 0 0.636412 0.636412 24.6019 0.954123 0.916944 -0.954123 -0.916944 1 0 0.00119679 0 
3 -1 0 0.63303 0.63303 25.0204 0.952342 0.913498 -0.952342 -0.913498 1 0 0.00117218 0 
3 -1 0 0.629715 0.629715 25.4417 0.950546 0.910004 -0.950546 -0.910004 1 0 0.00114745 0 
3 -1 0 0.626467 0.626467 25.8656 0.948744 0.906539 -0.948744 -0.906539 1 0 0.00112264 0 
3 -1 0 0.623284 0.623284 26.2923 0.946922 0.902975 -0.946922 -0.902975 1 0 0.00109777 0 
3 -1 0 0.620166 0.620166 26.7216 0.94509 0.899372 -0.94509 -0.899372 0.999455 0 0.00107418 0 
3 -1 0 0.617112 0.617112 27.1535 0.943263 0.895665 -0.943263 -0.895665 0.999465 0 0.00104923 0 
3 -1 0 0.61412 0.61412 27.5882 0.941416 0.892033 -0.941416 -0.892033 0.999474 0 0.0010243 0 
3 -1 0 0.611189 0.611189 28.0256 0.939565 0.88837 -0.939565 -0.88837 0.999484 0 0.000999401 0 
3 -1 0 0.608318 0.608318 28.4657 0.937724 0.884684 -0.937724 -0.884684 0.999494 0 0.000974562 0 
3 -1 0 0.605507 0.605507 28.9087 0.935866 0.880961 -0.935866 -0.880961 0.999504 0 0.000949815 0 
3 -1 0 0.602752 0.602752 29.3545 0.934007 0.877213 -0.934007 -0.877213 0.999515 0 0.000925169 0 
3 -1 0 0.600055 0.600055 29.8034 0.932168 0.873391 -0.932168 -0.873391 0.999525 0 0.000900651 0 
3 -1 0 0.597412 0.597412 30.2554 0.93031 0.869628 -0.93031 -0.869628 1 0 0.000875249 0 
3 -1 0 0.594823 0.594823 30.7106 0.928455 0.865846 -0.928455 -0.865846 1 0 0.000851045 0 
3 -1 0 0.592287 0.592287 31.1691 0.926591 0.862 -0.926591 -0.862 1 0 0.000827011 0 
3 -1 0 0.589802 0.589802 31.6311 0.924743 0.858205 -0.924743 -0.858205 1 0 0.000803161 0 
3 -1 0 0.587367 0.587367 32.0968 0.9229 0.854395 -0.9229 -0.854395 1 0 0.00077951 0 
3 -1 0 0.584981 0.584981 32.5662 0.921049 0.850568 -0.921049 -0.850568 1 0 0.000756073 0 
3 -1 0 0.582642 0.582642 33.0397 0.919219 0.84672 -0.919219 -0.84672 1 0 0.000732864 0 
3 -1 0 0.58035 0.58035 33.5173 0.917396 0.842861 -0.917396 -0.842861 1 0 0.000709895 0 
3 -1 0 0.578103 0.578103 33.9992 0.915571 0.839064 -0.915571 -0.839064 1 0 0.000687179 0 
3 -1 0 0.575901 0.575901 34.4857 0.913765 0.835229 -0.913765 -0.835229 1 0 0.000664729 0 
3 -1 0 0.573742 0.573742 34.977 0.911968 0.831385 -0.911968 -0.831385 1 0 0.000642557 0 
3 -1 0 0.571625 0.571625 35.4733 0.910174 0.827545 -0.910174 -0.827545 1 0 0.000620673 0 
3 -1 0 0.569549 0.569549 35.9748 0.908397 0.823691 -0.908397 -0.823691 1 0 0.00059909 0 
3 -1 0 0.567514 0.567514 36.4818 0.906631 0.819846 -0.906631 -0.819846 1 0 0.000577818 0 
3 -1 0 0.565517 0.565517 36.9945 0.904869 0.816115 -0.904869 -0.816115 1 0 0.000556867 0 
3 -1 0 0.563559 0.563559 37.5132 0.903126 0.812334 -0.903126 -0.812334 1 0 0.000536248 0 
3 -1 0 0.561639 0.561639 38.0382 0.901395 0.808548 -0.901395 -0.808548 1 0 0.000515971 0 
3 -1 0 0.559755 0.559755 38.5698 0.899667 0.804729 -0.899667 -0.804729 1 0 0.000496045 0 
3 -1 0 0.557908 0.557908 39.1082 0.897961 0.800939 -0.897961 -0.800939 1 0 0.000476479 0 
3 -1 0 0.556095 0.556095 39.6538 0.896267 0.797241 -0.896267 -0.797241 1 0 0.000457283 0 
3 -1 0 0.554317 0.554317 40.2069 0.894575 0.793531 -0.894575 -0.793531 1 0 0.000438465 0 
3 -1 0 0.552572 0.552572 40.7679 0.892909 0.789785 -0.892909 -0.789785 1 0 0.000420032 0 
3 -1 0 0.55086 0.55086 41.337 0.891255 0.786079 -0.891255 -0.786079 1 0 0.000401994 0 
3 -1 0 0.549181 0.549181 41.9146 0.889611 0.782415 -0.889611 -0.782415 1 0 0.000384356 0 
3 -1 0 0.547534 0.547534 42.5011 0.887986 0.778752 -0.887986 -0.778752 1 0 0.000367127 0 
3 -1 0 0.545917 0.545917 43.097 0.886375 0.775164 -0.886375 -0.775164 1 0 0.000350312 0 
3 -1 0 0.544332 0.544332 43.7025 0.884777 0.77152 -0.884777 -0.77152 1 0 0.000333918 0 
3 -1 0 0.542776 0.542776 44.3181 0.883194 0.767924 -0.883194 -0.767924 1 0 0.000317949 0 
3 -1 0 0.54125 0.54125 44.9443 0.881627 0.764407 -0.881627 -0.764407 1 0 0.000302412 0 
3 -1 0 0.539753 0.539753 45.5815 0.880072 0.760827 -0.880072 -0.760827 1 0 0.000287311 0 
3 -1 0 0.538284 0.538284 46.2301 0.878534 0.757326 -0.878534 -0.757326 1 0 0.000272649 0 
3 -1 0 0.536844 0.536844 46.8907 0.877011 0.753885 -0.877011 -0.753885 1 0 0.00025843 0 
3 -1 0 0.535431 0.535431 47.5637 0.8755 0.750367 -0.8755 -0.750367 1 0 0.000244656 0 
3 -1 0 0.534045 0.534045 48.2496 0.874006 0.746937 -0.874006 -0.746937 1 0 0.00023133 0 
3 -1 0 0.532687 0.532687 48.9491 0.872527 0.743602 -0.872527 -0.743602 1 0 0.000218453 0 
3 -1 0 0.531355 0.531355 49.6626 0.87106 0.7402 -0.87106 -0.7402 1 0 0.000206025 0 
3 -1 0 0.530049 0.530049 50.3908 0.869611 0.736821 -0.869611 -0.736821 1 0 0.000194047 0 
3 -1 0 0.52877 0.52877 51.1342 0.868176 0.7336 -0.868176 -0.7336 1 0 0.000182517 0 
3 -1 0 0.527515 0.527515 51.8934 0.866753 0.730275 -0.866753 -0.730275 1 0 0.000171435 0 
3 -1 0 0.526287 0.526287 52.6692 0.865347 0.726986 -0.865347 -0.726986 1 0 0.000160798 0 
3 -1 0 0.525083 0.525083 53.4622 0.863956 0.723895 -0.863956 -0.723895 1 0 0.000150603 0 
3 -1 0 0.523904 0.523904 54.2731 0.862577 0.72071 -0.862577 -0.72071 1 0 0.000140846 0 
3 -1 0 0.52275 0.52275 55.1027 0.861213 0.71767 -0.861213 -0.71767 1 0 0.000131523 0 
3 -1 0 0.521619 0.521619 55.9516 0.859862 0.71462 -0.859862 -0.71462 1 0 0.000122629 0 
3 -1 0 0.520514 0.520514 56.8207 0.858523 0.711586 -0.858523 -0.711586 1 0 0.000114158 0 
3 -1 0 0.519432 0.519432 57.7108 0.857196 0.708576 -0.857196 -0.708576 1 0 0.000106103 0 
3 -1 0 0.518373 0.518373 58.6228 0.855881 0.705556 -0.855881 -0.705556 1 0 9.84559e-05 0 
3 -1 0 0.517339 0.517339 59.5575 0.85458 0.70269 -0.85458 -0.70269 1 0 9.12098e-05 0 
3 -1 0 0.516328 0.516328 60.5158 0.853287 0.699877 -0.853287 -0.699877 1 0 8.43557e-05 0 
3 -1 0 0.51534 0.51534 61.4986 0.852003 0.697048 -0.852003 -0.697048 1 0 7.78841e-05 0 
3 -1 0 0.514375 0.514375 62.507 0.850724 0.694292 -0.850724 -0.694292 1 0 7.17851e-05 0 
3 -1 0 0.513433 0.513433 63.542 0.849456 0.691556 -0.849456 -0.691556 1 0 6.60482e-05 0 
3 -1 0 0.512514 0.512514 64.6045 0.848274 0.688802 -0.848274 -0.688802 1 0 6.06625e-05 0 
3 -1 0 0.511618 0.511618 65.6957 0.847108 0.686274 -0.847108 -0.686274 1 0 5.56164e-05 0 
3 -1 0 0.510745 0.510745 66.8167 0.845952 0.683675 -0.845952 -0.683675 1 0 5.0898e-05 0 
3 -1 0 0.509894 0.509894 67.9685 0.844806 0.681055 -0.844806 -0.681055 1 0 4.64953e-05 0 
3 -1 0 0.509065 0.509065 69.1525 0.843668 0.67849 -0.843668 -0.67849 1 0 4.23956e-05 0 
3 -1 0 0.508259 0.508259 70.3698 0.842536 0.676219 -0.842536 -0.676219 1 0 3.85863e-05 0 
3 -1 0 0.507476 0.507476 71.6216 0.84141 0.67392 -0.84141 -0.67392 1 0 3.50542e-05 0 
3 -1 0 0.506714 0.506714 72.9093 0.840288 0.671604 -0.840288 -0.671604 1 0 3.17865e-05 0 
3 -1 0 0.505974 0.505974 74.2341 0.839167 0.669343 -0.839167 -0.669343 1 0 2.87699e-05 0 
3 -1 0 0.505257 0.505257 75.5974 0.838046 0.667051 -0.838046 -0.667051 1 0 2.59914e-05 0 
3 -1 0 0.504561 0.504561 77.0005 0.836943 0.664994 -0.836943 -0.664994 1 0 2.34379e-05 0 
3 -1 0 0.503887 0.503887 78.4449 0.835947 0.662918 -0.835947 -0.662918 1 0 2.10964e-05 0 
3 -1 0 0.503234 0.503234 79.9319 0.834952 0.660804 -0.834952 -0.660804 1 0 1.89542e-05 0 
3 -1 0 0.502603 0.502603 81.4631 0.833954 0.658851 -0.833954 -0.658851 1 0 1.69988e-05 0 
3 -1 0 0.501994 0.501994 83.0398 0.832956 0.657007 -0.832956 -0.657007 1 0 1.52179e-05 0 
3 -1 0 0.501405 0.501405 84.6637 0.831952 0.655117 -0.831952 -0.655117 1 0 1.35997e-05 0 
3 -1 0 0.500837 0.500837 86.3361 0.830936 0.653311 -0.830936 -0.653311 1 0 1.21324e-05 0 
3 -1 0 0.50029 0.50029 88.0587 0.829907 0.651616 -0.829907 -0.651616 1 0 1.08051e-05 0 
3 -1 0 0.499764 0.499764 89.8329 0.829025 0.649867 -0.829025 -0.649867 1 0 9.60705e-06 0 
3 -1 0 0.499258 0.499258 91.6605 0.828156 0.648294 -0.828156 -0.648294 1 0 8.52792e-06 0 
3 -1 0 0.498772 0.498772 93.5428 0.827283 0.646743 -0.827283 -0.646743 1 0 7.55805e-06 0 
3 -1 0 0.498305 0.498305 95.4816 0.826394 0.645163 -0.826394 -0.645163 1 0 6.68819e-06 0 
3 -1 0 0.497858 0.497858 97.4784 0.825496 0.64378 -0.825496 -0.64378 1 0 5.90964e-06 0 
3 -1 0 0.497431 0.497431 99.5349 0.824568 0.642398 -0.824568 -0.642398 1 0 5.21418e-06 0 
3 -1 0 0.497022 0.497022 101.653 0.823696 0.640964 -0.823696 -0.640964 1 0 4.59415e-06 0 
3 -1 0 0.496631 0.496631 103.833 0.822915 0.639703 -0.822915 -0.639703 1 0 4.04234e-06 0 
3 -1 0 0.496259 0.496259 106.079 0.822205 0.638562 -0.822205 -0.638562 1 0 3.55224e-06 0 
3 -1 0 0.495904 0.495904 108.391 0.821466 0.637391 -0.821466 -0.637391 1 0 3.11766e-06 0 
3 -1 0 0.495566 0.495566 110.77 0.820696 0.636244 -0.820696 -0.636244 1 0 2.73293e-06 0 
3 -1 0 0.495245 0.495245 113.22 0.819973 0.635221 -0.819973 -0.635221 1 0 2.39289e-06 0 
3 -1 0 0.49494 0.49494 115.741 0.819208 0.634194 -0.819208 -0.634194 1 0 2.0928e-06 0 
3 -1 0 0.494651 0.494651 118.336 0.818393 0.63315 -0.818393 -0.63315 1 0 1.82848e-06 0 
3 -1 0 0.494377 0.494377 121.007 0.817837 0.632343 -0.817837 -0.632343 1 0 1.59574e-06 0 
3 -1 0 0.494118 0.494118 123.754 0.817234 0.631429 -0.817234 -0.631429 1 0 1.39117e-06 0 
3 -1 0 0.493874 0.493874 126.581 0.816512 0.630555 -0.816512 -0.630555 1 0 1.2115e-06 0 
3 -1 0 0.493643 0.493643 129.49 0.81598 0.629874 -0.81598 -0.629874 1 0 1.054e-06 0 
3 -1 0 0.493425 0.493425 132.482 0.815386 0.62911 -0.815386 -0.62911 1 0 9.16029e-07 0 
3 -1 0 0.49322 0.49322 135.56 0.814661 0.628444 -0.814661 -0.628444 1 0 7.95308e-07 0 
3 -1 0 0.493026 0.493026 138.727 0.814241 0.627767 -0.814241 -0.627767 1 0 6.89743e-07 0 
3 -1 0 0.492845 0.492845 141.984 0.813751 0.627159 -0.813751 -0.627159 1 0 5.97532e-07 0 
3 -1 0 0.492675 0.492675 145.335 0.81317 0.626586 -0.81317 -0.626586 1 0 5.17061e-07 0 
3 -1 0 0.492515 0.492515 148.783 0.812503 0.625982 -0.812503 -0.625981 1 0 4.46884e-07 0 
3 -1 0 0.492365 0.492365 152.33 0.812195 0.625551 -0.812195 -0.625551 1 0 3.8574e-07 0 
3 -1 0 0.492225 0.492225 155.979 0.81179 0.625044 -0.811788 -0.625044 1 0 3.32334e-07 0 
3 -1 0 0.492094 0.492094 159.734 0.811429 0.624603 -0.811429 -0.624604 1 0 2.86039e-07 0 
3 -1 0 0.491971 0.491971 163.599 0.810968 0.624162 -0.81097 -0.624161 1 0 2.45806e-07 0 
3 -1 0 0.491857 0.491857 167.576 0.810609 0.623793 -0.810611 -0.623792 1 0 2.10939e-07 0 
3 -1 0 0.49175 0.49175 171.67 0.810275 0.623382 -0.810274 -0.623384 1 0 1.80634e-07 0 
3 -1 0 0.49165 0.49165 175.886 0.809826 0.623093 -0.809822 -0.623093 1 0 1.54373e-07 0 
3 -1 0 0.491558 0.491558 180.227 0.809581 0.62269 -0.809579 -0.622686 1 0 1.31626e-07 0 
3 -1 0 0.491471 0.491471 184.699 0.809295 0.622451 -0.809296 -0.622453 1 0 1.11979e-07 0 
3 -1 0 0.491391 0.491391 189.306 0.808879 0.622181 -0.808884 -0.622178 1 0 9.50177e-08 0 
3 -1 0 0.491317 0.491317 194.054 0.808576 0.621943 -0.808577 -0.621943 1 0 8.0387e-08 0 
3 -1 0 0.491248 0.491248 198.948 0.80847 0.621626 -0.80847 -0.621625 1 0 6.78096e-08 0 
3 -1 0 0.491184 0.491184 203.995 0.808225 0.621476 -0.808225 -0.621476 1 0 5.74957e-08 0 
3 -1 0 0.491124 0.491124 209.201 0.807895 0.621273 -0.807891 -0.621273 1 0 4.8124e-08 0 
3 -1 0 0.491069 0.491069 214.573 0.807413 0.620968 -0.807419 -0.620971 1 0 4.01127e-08 0 
3 -1 0 0.491018 0.491018 220.119 0.807503 0.620907 -0.807506 -0.620907 1 0 3.32293e-08 0 
3 -1 0 0.490971 0.490971 225.846 0.807436 0.620655 -0.807436 -0.620654 1 0 2.73179e-08 0 
3 -1 0 0.490928 0.490928 231.762 0.807223 0.620575 -0.807223 -0.620575 0.999999 0 2.22253e-08 0 
3 -1 0 0.490888 0.490888 237.877 0.806832 0.620406 -0.806833 -0.620406 0.999998 0 1.78303e-08 0 
3 -1 0 0.49085 0.49085 244.2 0.806875 0.62027 -0.806875 -0.620271 0.999997 0 1.32862e-08 0 
3 -1 0 0.490816 0.490816 250.741 0.806844 0.620188 -0.806844 -0.620188 0.999995 0 9.52924e-09 0 
3 -1 0 0.490785 0.490785 257.511 0.806625 0.620027 -0.806624 -0.620027 0.999994 0 6.08733e-09 0 
3 -1 0 0.490756 0.490756 264.521 0.806609 0.619972 -0.80661 -0.619976 0.999992 0 4.31661e-09 0 
3 -1 0 0.490729 0.490729 271.784 0.806369 0.619817 -0.806383 -0.619809 0.999989 0 1.43e-09 0 
3 -1 0 0.490705 0.490705 279.313 0.806211 0.619807 -0.806193 -0.619809 0.999986 0 -1.41691e-09 0 
3 -1 0 0.490682 0.490682 287.123 0.806208 0.619608 -0.806187 -0.619588 0.999983 0 -1.24886e-09 0 
3 -1 0 0.490661 0.490661 295.227 0.80625 0.619662 -0.806249 -0.619662 0.999979 0 -3.77181e-09 0 
3 -1 0 0.490642 0.490642 303.643 0.806068 0.619451 -0.806087 -0.619471 0.999974 0 -6.54246e-09 0 
3 -1 0 0.490625 0.490625 312.388 0.806059 0.619511 -0.805987 -0.619535 0.999971 0 -1.92727e-08 0 
3 -1 0 0.490609 0.490609 321.479 0.805708 0.619429 -0.805547 -0.619343 0.999965 0 -2.54947e-08 0 
3 -1 0 0.490594 0.490594 330.938 0.805734 0.6194 -0.805837 -0.619428 0.999958 0 -3.33707e-08 0 
3 -1 0 0.490581 0.490581 340.785 0.805557 0.619341 -0.805589 -0.619348 0.999948 0 -3.557e-08 0 
3 -1 0 0.490569 0.490569 351.044 0.805722 0.619279 -0.805711 -0.619268 0.999938 0 -4.64214e-08 0 
3 -1 0 0.490558 0.490558 361.738 0.805865 0.619278 -0.805863 -0.619284 0.999925 0 -6.06324e-08 0 
3 -1 0 0.490547 0.490547 372.895 0.805649 0.619097 -0.805697 -0.619125 0.999913 0 -8.21916e-08 0 
3 -1 0 0.490538 0.490538 384.543 0.805799 0.619234 -0.805801 -0.619233 0.999896 0 -1.0913e-07 0 
3 -1 0 0.49053 0.49053 396.713 0.805659 0.619039 -0.805614 -0.61901 0.999876 0 -1.44192e-07 0 
3 -1 0 0.490522 0.490522 409.437 0.805742 0.619086 -0.805744 -0.619108 0.999855 0 -1.94167e-07 0 
3 -1 0 0.490515 0.490515 422.753 0.805507 0.619138 -0.805526 -0.619127 0.999826 0 -2.64183e-07 0 
3 -1 0 0.490509 0.490509 436.698 0.805417 0.619041 -0.805389 -0.619063 0.999794 0 -3.57909e-07 0 
3 -1 0 0.490503 0.490503 451.314 0.80557 0.619096 -0.805575 -0.619097 0.999753 0 -4.9838e-07 0 
3 -1 0 0.490497 0.490497 466.647 0.805655 0.618989 -0.805654 -0.618987 0.999705 0 -6.88425e-07 0 
3 -1 0 0.490493 0.490493 482.747 0.805386 0.619054 -0.805378 -0.619055 0.999648 0 -9.53635e-07 0 
3 -1 0 0.490488 0.490488 499.666 0.805111 0.619055 -0.80513 -0.619056 0.999587 0 -1.36928e-06 0 
3 -1 0 0.490484 0.490484 517.462 0.805534 0.618901 -0.805542 -0.618897 0.999504 0 -1.92827e-06 0 
3 -1 0 0.490481 0.490481 536.201 0.805583 0.619012 -0.805578 -0.619014 0.999405 0 -2.72244e-06 0 
3 -1 0 0.490478 0.490478 555.949 0.805469 0.618999 -0.805464 -0.619 0.999297 0 -5.08152e-06 0 
3 -1 0 0.490475 0.490475 576.784 0.804939 0.61891 -0.804952 -0.618908 0.999145 0 -7.10626e-06 0 
3 -1 0 0.490472 0.490472 598.788 0.80546 0.618905 -0.805466 -0.618908 0.998965 0 -9.92611e-06 0 
3 -1 0 0.49047 0.49047 622.051 0.805569 0.618993 -0.80557 -0.618993 0.998765 0 -1.22847e-05 0 
3 -1 0 0.490468 0.490468 646.673 0.805359 0.618854 -0.805357 -0.618856 0.9985 0 -1.73036e-05 0 
3 -1 0 0.490466 0.490466 672.764 0.805345 0.618957 -0.805347 -0.618956 0.998179 0 -2.4423e-05 0 
3 -1 0 0.490464 0.490464 700.444 0.805551 0.618853 -0.805551 -0.618852 0.997809 0 -3.09112e-05 0 
3 -1 0 0.490462 0.490462 729.847 0.805327 0.618955 -0.805326 -0.618955 0.997312 0 -4.42915e-05 0 
3 -1 0 0.490461 0.490461 761.119 0.805206 0.618786 -0.805208 -0.618785 0.9967 0 -6.35007e-05 0 
3 -1 0 0.49046 0.49046 794.425 0.805169 0.618813 -0.805171 -0.618811 0.995925 0 -8.30801e-05 0 
3 -1 0 0.490459 0.490459 829.947 0.805531 0.618933 -0.805531 -0.618933 0.994925 0 -0.000121211 0 
3 -1 0 0.490458 0.490458 867.885 0.805281 0.618776 -0.80528 -0.618774 0.993695 0 -0.000175975 0 
3 -1 0 0.490457 0.490457 908.467 0.805137 0.618602 -0.80514 -0.618604 0.992001 0 -8.80958e-05 0 
3 -1 0 0.490456 0.490456 951.946 0.805524 0.618948 -0.805524 -0.618948 0.989956 0 -0.00012835 0 
3 -1 0 0.490455 0.490455 998.605 0.805208 0.618818 -0.805206 -0.618819 0.987384 0 -0.00020287 0 
3 -1 0 0.490455 0.490455 1048.76 0.805329 0.618709 -0.805277 -0.618742 0.984168 0 -0.000264918 0 
3 -1 0 0.490454 0.490454 1102.78 0.805096 0.618939 -0.805167 -0.618941 0.979904 0 -0.000419463 0 
3 -1 0 0.490454 0.490454 1161.07 0.805518 0.618699 -0.805516 -0.618665 0.974266 0 -0.000663637 0 
3 -1 0 0.490453 0.490453 1224.08 0.805093 0.61882 -0.80527 -0.618872 0.966889 0 -0.000925463 0 
3 -1 0 0.490453 0.490453 1292.36 0.805515 0.618796 -0.805482 -0.618726 0.956912 0 -0.00138423 0 
3 -1 0 0.490453 0.490453 1366.5 0.804977 0.618929 -0.804719 -0.618937 0.943862 0 -0.00214576 0 
3 -1 0 0.490452 0.490452 1447.2 0.805456 0.618893 -0.805373 -0.618897 0.927423 0 -0.00333388 0 
3 -1 0 0.490452 0.490452 1535.26 0.805267 0.618622 -0.805184 -0.618727 0.902414 0 -0.00447553 0 
3 -1 0 0.490452 0.490452 1631.59 0.805281 0.618932 -0.805478 -0.618811 0.869761 0 -0.00656893 0 
3 -1 0 0.490452 0.490452 1737.28 0.805252 0.618933 -0.805423 -0.618873 0.824261 0 -0.0070895 0 
3 -1 0 0.490451 0.490451 1853.58 0.805419 0.618842 -0.805258 -0.618783 1.00461 0 0.00024631 0 
3 -1 0 0.490451 0.490451 1981.96 0.804152 0.618588 -0.805125 -0.618687 0.659302 0 -0.0134561 0 
3 -1 0 0.490451 0.490451 2124.16 0.804709 0.61882 -0.804899 -0.618597 1.00069 0 2.85641e-05 0 
3 -1 0 0.490451 0.490451 2282.24 0.805435 0.618931 -0.805497 -0.618793 0.341161 0 -0.0117455 0 
3 -1 0 0.490451 0.490451 2458.67 0.805059 0.618785 -0.804397 -0.618934 0.13419 0 -0.00694833 0 
3 -1 0 0.490451 0.490451 2656.41 0.805507 0.618902 -0.804849 -0.618927 1.01465 0 0.000878105 0 
3 -1 0 0.490451 0.490451 2879.06 0.805009 0.618416 -0.805513 -0.618761 1.01119 0 0.0006987 0 
3 -1 0 0.490451 0.490451 3128.21 0.805405 0.618779 -0.804583 -0.618629 3.4643 0 0.16922 0 
3 -1 0 0.490451 0.490451 3413.54 0.805491 0.618865 -0.805503 -0.618827 1.01906 0 0.00087581 0 
3 -1 0 0.490451 0.490451 3732.14 0.804582 0.618836 -0.804219 -0.618844 6.29363 0 0.127168 0 
3 -1 0 0.490451 0.490451 4106.36 0.805507 0.618775 -0.80551 -0.618882 6.13024 0 0.137173 0 
3 -1 0 0.490451 0.490451 4541.54 0.805494 0.618898 -0.805363 -0.618914 7.80757 0 0.126848 0 
3 -1 0 0.490451 0.490451 5050.09 0.804142 0.618916 -0.805111 -0.618914 7.57758 0 0.13171 0 
3 -1 0 0.490451 0.490451 5335.56 0.805325 0.618405 -0.805494 -0.618643 1.3465 0 0.0171079 0 
3 -1 0 0.490451 0.490451 5335.56 0.804815 0.618715 -0.805474 -0.618615 1.3465 0 0.0171079 0 
