3 -1 0 1 1 6.25 1 0.999731 -0.999756 -0.999687 0 0 0 0 
3 -1 0 0.999586 0.999586 6.28579 0.999363 0.99928 -0.999363 -0.99928 0.999711 0 0.00186955 0 
3 -1 0 0.991155 0.991155 6.33938 0.988604 0.986805 -0.988604 -0.986805 1.00025 0 0.00193564 0 
3 -1 0 0.990501 0.990501 6.34359 0.987781 0.985894 -0.987781 -0.985894 1.00002 0 0.00193902 0 
3 -1 0 0.989193 0.989193 6.35202 0.986124 0.983971 -0.986124 -0.983971 1.00001 0 0.00194904 0 
3 -1 0 0.986575 0.986575 6.36898 0.982813 0.980125 -0.982813 -0.980125 1.00004 0 0.00196971 0 
3 -1 0 0.983662 0.983662 6.38798 0.979153 0.975885 -0.979153 -0.975885 1.00006 0 0.00199295 0 
3 -1 0 0.980746 0.980746 6.40716 0.97549 0.971609 -0.97549 -0.971609 1.00006 0 0.00201643 0 
3 -1 0 0.977826 0.977826 6.4265 0.971834 0.967336 -0.971834 -0.967336 1.00006 0 0.00204026 0 
3 -1 0 0.974903 0.974903 6.44602 0.968201 0.963101 -0.968201 -0.963101 1.00006 0 0.00206448 0 
3 -1 0 0.971976 0.971976 6.46571 0.96456 0.958837 -0.96456 -0.958837 1.00006 0 0.0020891 0 
3 -1 0 0.969045 0.969045 6.48559 0.960928 0.954575 -0.960928 -0.954575 1.00006 0 0.0021141 0 
3 -1 0 0.966111 0.966111 6.50565 0.957313 0.950217 -0.957313 -0.950217 1.00006 0 0.00213951 0 
3 -1 0 0.963173 0.963173 6.52589 0.953695 0.945971 -0.953695 -0.945971 1.00006 0 0.00216532 0 
3 -1 0 0.960232 0.960232 6.54632 0.950084 0.941727 -0.950084 -0.941727 1.00006 0 0.00219153 0 
3 -1 0 0.957287 0.957287 6.56694 0.946476 0.937484 -0.946476 -0.937484 1.00006 0 0.00221816 0 
3 -1 0 0.954339 0.954339 6.58776 0.942879 0.933247 -0.942879 -0.933247 1.00006 0 0.0022452 0 
3 -1 0 0.951388 0.951388 6.60878 0.93929 0.929013 -0.93929 -0.929013 1.00006 0 0.00227267 0 
3 -1 0 0.948433 0.948433 6.63 0.935705 0.924802 -0.935705 -0.924802 1.00006 0 0.00230056 0 
3 -1 0 0.945475 0.945475 6.65142 0.93213 0.920563 -0.93213 -0.920563 1.00005 0 0.00232888 0 
3 -1 0 0.942514 0.942514 6.67306 0.928561 0.916327 -0.928561 -0.916327 1.00005 0 0.00235764 0 
3 -1 0 0.939549 0.939549 6.6949 0.924999 0.912061 -0.924999 -0.912061 1.00005 0 0.00238683 0 
3 -1 0 0.936581 0.936581 6.71696 0.921445 0.907829 -0.921445 -0.907829 1.00005 0 0.00241647 0 
3 -1 0 0.93361 0.93361 6.73924 0.917897 0.903602 -0.917897 -0.903602 1.00005 0 0.00244655 0 
3 -1 0 0.930636 0.930636 6.76175 0.914353 0.899485 -0.914353 -0.899485 1.00005 0 0.00247709 0 
3 -1 0 0.927659 0.927659 6.78448 0.910818 0.895278 -0.910818 -0.895278 1.00005 0 0.00250807 0 
3 -1 0 0.924678 0.924678 6.80745 0.907291 0.891075 -0.907291 -0.891075 1.00005 0 0.00253952 0 
3 -1 0 0.921694 0.921694 6.83065 0.903768 0.886878 -0.903768 -0.886878 1.00005 0 0.0025714 0 
3 -1 0 0.918708 0.918708 6.85409 0.900254 0.88268 -0.900254 -0.88268 1.00005 0 0.00260377 0 
3 -1 0 0.915718 0.915718 6.87777 0.896745 0.878486 -0.896745 -0.878486 1.00005 0 0.00263661 0 
3 -1 0 0.912725 0.912725 6.90171 0.893246 0.874221 -0.893246 -0.874221 1.00005 0 0.00266992 0 
3 -1 0 0.90973 0.90973 6.9259 0.88975 0.870047 -0.88975 -0.870047 1.00005 0 0.0027037 0 
3 -1 0 0.906731 0.906731 6.95035 0.88626 0.865877 -0.88626 -0.865877 1.00005 0 0.00273796 0 
3 -1 0 0.903729 0.903729 6.97506 0.882773 0.861759 -0.882773 -0.861759 1.00005 0 0.0027727 0 
3 -1 0 0.900725 0.900725 7.00004 0.879296 0.857588 -0.879296 -0.857588 1.00005 0 0.00280792 0 
3 -1 0 0.897718 0.897718 7.02529 0.875825 0.853421 -0.875825 -0.853421 1.00005 0 0.00284363 0 
3 -1 0 0.894708 0.894708 7.05083 0.872356 0.849207 -0.872356 -0.849207 1.00005 0 0.00287986 0 
3 -1 0 0.891695 0.891695 7.07665 0.868897 0.845062 -0.868897 -0.845062 1.00005 0 0.00291654 0 
3 -1 0 0.888679 0.888679 7.10276 0.865443 0.840921 -0.865443 -0.840921 1.00005 0 0.00295371 0 
3 -1 0 0.885661 0.885661 7.12916 0.861995 0.836811 -0.861995 -0.836811 1.00005 0 0.00299137 0 
3 -1 0 0.88264 0.88264 7.15587 0.858553 0.832668 -0.858553 -0.832668 1.00005 0 0.00302953 0 
3 -1 0 0.879616 0.879616 7.18289 0.855117 0.82853 -0.855117 -0.82853 1.00005 0 0.00306817 0 
3 -1 0 0.87659 0.87659 7.21022 0.851685 0.824408 -0.851685 -0.824408 1.00005 0 0.00310731 0 
3 -1 0 0.873561 0.873561 7.23787 0.848259 0.820284 -0.848259 -0.820284 1.00005 0 0.00314694 0 
3 -1 0 0.870529 0.870529 7.26585 0.84484 0.816165 -0.84484 -0.816165 1.00005 0 0.00318705 0 
3 -1 0 0.867495 0.867495 7.29416 0.841425 0.812052 -0.841425 -0.812052 1.00005 0 0.00322766 0 
3 -1 0 0.864458 0.864458 7.32282 0.838016 0.807943 -0.838016 -0.807943 1.00005 0 0.00326876 0 
3 -1 0 0.861419 0.861419 7.35182 0.834612 0.803838 -0.834612 -0.803838 1.00005 0 0.00331035 0 
3 -1 0 0.858377 0.858377 7.38118 0.831214 0.79974 -0.831214 -0.79974 1.00005 0 0.00335242 0 
3 -1 0 0.855333 0.855333 7.41091 0.82782 0.795645 -0.82782 -0.795645 1.00005 0 0.00339498 0 
3 -1 0 0.852287 0.852287 7.441 0.824432 0.791553 -0.824432 -0.791553 1.00005 0 0.00343801 0 
3 -1 0 0.849238 0.849238 7.47148 0.821049 0.787474 -0.821049 -0.787474 1.00005 0 0.00348138 0 
3 -1 0 0.846187 0.846187 7.50234 0.817671 0.783393 -0.817671 -0.783393 1.00005 0 0.00352535 0 
3 -1 0 0.843134 0.843134 7.5336 0.814297 0.779317 -0.814297 -0.779317 1.00005 0 0.00356979 0 
3 -1 0 0.840078 0.840078 7.56527 0.810929 0.775274 -0.810929 -0.775274 1.00005 0 0.0036148 0 
3 -1 0 0.837021 0.837021 7.59735 0.807566 0.771232 -0.807566 -0.771232 1.00005 0 0.00366016 0 
3 -1 0 0.833961 0.833961 7.62985 0.804207 0.767195 -0.804207 -0.767195 1.00005 0 0.00370597 0 
3 -1 0 0.830898 0.830898 7.66279 0.800853 0.763146 -0.800853 -0.763146 1.00005 0 0.00375227 0 
3 -1 0 0.827834 0.827834 7.69617 0.797504 0.759123 -0.797504 -0.759123 1.00005 0 0.00379895 0 
3 -1 0 0.824768 0.824768 7.73001 0.794159 0.755104 -0.794159 -0.755104 1.00005 0 0.00384605 0 
3 -1 0 0.8217 0.8217 7.7643 0.790821 0.75105 -0.790821 -0.75105 1.00005 0 0.00389349 0 
3 -1 0 0.818629 0.818629 7.79908 0.787486 0.747023 -0.787486 -0.747023 1.00005 0 0.0039414 0 
3 -1 0 0.815557 0.815557 7.83434 0.784155 0.743001 -0.784155 -0.743001 1.00005 0 0.00398969 0 
3 -1 0 0.812483 0.812483 7.8701 0.780829 0.739047 -0.780829 -0.739047 1.00005 0 0.00403836 0 
3 -1 0 0.809407 0.809407 7.90637 0.777508 0.735068 -0.777508 -0.735068 1.00005 0 0.0040874 0 
3 -1 0 0.806329 0.806329 7.94316 0.77419 0.731095 -0.77419 -0.731095 1.00005 0 0.00413678 0 
3 -1 0 0.803249 0.803249 7.98049 0.770879 0.72712 -0.770879 -0.72712 1.00005 0 0.0041865 0 
3 -1 0 0.800168 0.800168 8.01837 0.767571 0.723159 -0.767571 -0.723159 1.00005 0 0.00423652 0 
3 -1 0 0.797084 0.797084 8.05681 0.764267 0.719202 -0.764267 -0.719202 1.00005 0 0.00428684 0 
3 -1 0 0.794 0.794 8.09582 0.760973 0.715243 -0.760973 -0.715243 1.00005 0 0.00433744 0 
3 -1 0 0.790913 0.790913 8.13543 0.757705 0.71129 -0.757705 -0.71129 1.00005 0 0.0043883 0 
3 -1 0 0.787825 0.787825 8.17564 0.75444 0.707342 -0.75444 -0.707342 1.00005 0 0.00443938 0 
3 -1 0 0.784736 0.784736 8.21648 0.75118 0.703387 -0.75118 -0.703387 1.00005 0 0.00449068 0 
3 -1 0 0.781645 0.781645 8.25796 0.747925 0.699446 -0.747925 -0.699446 1.00005 0 0.00454216 0 
3 -1 0 0.778552 0.778552 8.30009 0.744674 0.695509 -0.744674 -0.695509 1.00005 0 0.00459379 0 
3 -1 0 0.775459 0.775459 8.34289 0.741427 0.691665 -0.741427 -0.691665 1.00005 0 0.00464556 0 
3 -1 0 0.772363 0.772363 8.38638 0.738185 0.687751 -0.738185 -0.687751 1.00005 0 0.00469743 0 
3 -1 0 0.769267 0.769267 8.43059 0.734948 0.68384 -0.734948 -0.68384 1.00005 0 0.00474936 0 
3 -1 0 0.76617 0.76617 8.47552 0.731716 0.680008 -0.731716 -0.680008 1.00005 0 0.00480132 0 
3 -1 0 0.763071 0.763071 8.5212 0.728487 0.676119 -0.728487 -0.676119 1.00005 0 0.00485329 0 
3 -1 0 0.759971 0.759971 8.56765 0.725263 0.672234 -0.725263 -0.672234 1.00005 0 0.00490521 0 
3 -1 0 0.75687 0.75687 8.61489 0.722041 0.668446 -0.722041 -0.668446 1.00005 0 0.00495705 0 
3 -1 0 0.753769 0.753769 8.66295 0.718827 0.664615 -0.718827 -0.664615 1.00005 0 0.00500878 0 
3 -1 0 0.750666 0.750666 8.71184 0.715616 0.660789 -0.715616 -0.660789 1.00005 0 0.00506034 0 
3 -1 0 0.747563 0.747563 8.76159 0.712411 0.656959 -0.712411 -0.656959 1.00005 0 0.00511169 0 
3 -1 0 0.744458 0.744458 8.81223 0.709209 0.653133 -0.709209 -0.653133 1.00005 0 0.00516279 0 
3 -1 0 0.741353 0.741353 8.86379 0.706012 0.649312 -0.706012 -0.649312 1.00005 0 0.00521358 0 
3 -1 0 0.738248 0.738248 8.91628 0.702822 0.645464 -0.702822 -0.645464 1.00005 0 0.00526401 0 
3 -1 0 0.735142 0.735142 8.96974 0.699634 0.641706 -0.699634 -0.641706 1.00005 0 0.00531402 0 
3 -1 0 0.732035 0.732035 9.0242 0.69645 0.637958 -0.69645 -0.637958 1.00005 0 0.00536356 0 
3 -1 0 0.728928 0.728928 9.07969 0.693274 0.634224 -0.693274 -0.634224 1 0 0.00540933 0 
3 -1 0 0.725821 0.725821 9.13624 0.6901 0.630477 -0.6901 -0.630477 1 0 0.00545765 0 
3 -1 0 0.722714 0.722714 9.19388 0.68693 0.626734 -0.68693 -0.626734 1 0 0.00550531 0 
3 -1 0 0.719606 0.719606 9.25265 0.68377 0.622985 -0.68377 -0.622985 1 0 0.00555224 0 
3 -1 0 0.716498 0.716498 9.31259 0.680609 0.619244 -0.680609 -0.619244 1 0 0.00559835 0 
3 -1 0 0.713391 0.713391 9.37373 0.677453 0.615506 -0.677453 -0.615506 1 0 0.00564359 0 
3 -1 0 0.710283 0.710283 9.43611 0.674311 0.611819 -0.674311 -0.611819 1 0 0.00568786 0 
3 -1 0 0.707176 0.707176 9.49977 0.671183 0.608156 -0.671183 -0.608156 1 0 0.00573109 0 
3 -1 0 0.704069 0.704069 9.56476 0.668081 0.604495 -0.668081 -0.604495 1 0 0.00577319 0 
3 -1 0 0.700963 0.700963 9.63113 0.664967 0.600838 -0.664967 -0.600838 1 0 0.00581407 0 
3 -1 0 0.697857 0.697857 9.69891 0.661877 0.597178 -0.661877 -0.597178 1 0 0.00585365 0 
3 -1 0 0.694752 0.694752 9.76816 0.658792 0.59352 -0.658792 -0.59352 1 0 0.00589182 0 
3 -1 0 0.691648 0.691648 9.83893 0.655691 0.589842 -0.655691 -0.589842 1 0 0.00592849 0 
3 -1 0 0.688545 0.688545 9.91127 0.652619 0.586251 -0.652619 -0.586251 1 0 0.00596355 0 
3 -1 0 0.685443 0.685443 9.98525 0.649553 0.582671 -0.649553 -0.582671 1 0 0.0059969 0 
3 -1 0 0.682342 0.682342 10.0609 0.646448 0.579095 -0.646448 -0.579095 1 0 0.00602843 0 
3 -1 0 0.679242 0.679242 10.1383 0.6434 0.575517 -0.6434 -0.575517 1 0 0.00605803 0 
3 -1 0 0.676144 0.676144 10.2176 0.640357 0.571941 -0.640357 -0.571941 1 0 0.00608557 0 
3 -1 0 0.673048 0.673048 10.2987 0.637334 0.568328 -0.637334 -0.568328 1 0 0.00611094 0 
3 -1 0 0.669954 0.669954 10.3818 0.634298 0.564824 -0.634298 -0.564824 1 0 0.00613402 0 
3 -1 0 0.666861 0.666861 10.4669 0.631267 0.561321 -0.631267 -0.561321 1 0 0.00615467 0 
3 -1 0 0.663771 0.663771 10.5542 0.628233 0.557813 -0.628233 -0.557813 1 0 0.00617277 0 
3 -1 0 0.660683 0.660683 10.6436 0.625209 0.554296 -0.625209 -0.554296 1 0 0.00618817 0 
3 -1 0 0.657598 0.657598 10.7354 0.622191 0.550779 -0.622191 -0.550779 1 0 0.00620075 0 
3 -1 0 0.654515 0.654515 10.8295 0.619153 0.547365 -0.619153 -0.547365 1 0 0.00621035 0 
3 -1 0 0.651436 0.651436 10.9261 0.616144 0.543914 -0.616144 -0.543914 1 0 0.00621685 0 
3 -1 0 0.64836 0.64836 11.0253 0.613151 0.540463 -0.613151 -0.540463 1 0 0.00622008 0 
3 -1 0 0.645287 0.645287 11.1272 0.610228 0.537038 -0.610228 -0.537038 1 0 0.00621989 0 
3 -1 0 0.642218 0.642218 11.232 0.60728 0.5336 -0.60728 -0.5336 1 0 0.00621615 0 
3 -1 0 0.639153 0.639153 11.3397 0.60434 0.530196 -0.60434 -0.530196 1 0 0.00620869 0 
3 -1 0 0.636092 0.636092 11.4504 0.601418 0.526832 -0.601418 -0.526832 1 0 0.00619736 0 
3 -1 0 0.633035 0.633035 11.5644 0.598489 0.523504 -0.598489 -0.523504 1 0 0.00618199 0 
3 -1 0 0.629984 0.629984 11.6817 0.595567 0.520175 -0.595567 -0.520175 1 0 0.00616245 0 
3 -1 0 0.626938 0.626938 11.8026 0.592644 0.516845 -0.592644 -0.516845 1 0 0.00613856 0 
3 -1 0 0.623897 0.623897 11.9272 0.589735 0.513542 -0.589735 -0.513542 1 0 0.00611017 0 
3 -1 0 0.620862 0.620862 12.0556 0.586834 0.510237 -0.586834 -0.510237 1 0 0.00607712 0 
3 -1 0 0.617833 0.617833 12.1882 0.583926 0.506919 -0.583926 -0.506919 1 0 0.00603927 0 
3 -1 0 0.614811 0.614811 12.3249 0.581065 0.50371 -0.581065 -0.50371 1 0 0.00599647 0 
3 -1 0 0.611796 0.611796 12.4662 0.578231 0.500496 -0.578231 -0.500496 1 0 0.00594856 0 
3 -1 0 0.608788 0.608788 12.6122 0.575423 0.497283 -0.575423 -0.497283 1 0 0.00589541 0 
3 -1 0 0.605788 0.605788 12.7632 0.572606 0.49407 -0.572606 -0.49407 1 0 0.00583688 0 
3 -1 0 0.602797 0.602797 12.9194 0.569801 0.490852 -0.569801 -0.490852 1 0 0.00577285 0 
3 -1 0 0.599815 0.599815 13.0811 0.567007 0.487689 -0.567007 -0.487689 1 0 0.0057032 0 
3 -1 0 0.596842 0.596842 13.2486 0.564221 0.484609 -0.564221 -0.484609 1 0 0.00562782 0 
3 -1 0 0.593879 0.593879 13.4223 0.561447 0.481525 -0.561447 -0.481525 1 0 0.00554663 0 
3 -1 0 0.590927 0.590927 13.6025 0.558669 0.47844 -0.558669 -0.47844 1 0 0.00545955 0 
3 -1 0 0.587987 0.587987 13.7896 0.555918 0.475366 -0.555918 -0.475366 1 0 0.00536651 0 
3 -1 0 0.585059 0.585059 13.984 0.553182 0.472283 -0.553182 -0.472283 1 0 0.00526747 0 
3 -1 0 0.582143 0.582143 14.1862 0.550506 0.469263 -0.550506 -0.469263 1 0 0.00516242 0 
3 -1 0 0.579241 0.579241 14.3966 0.547831 0.466322 -0.547831 -0.466322 1 0 0.00505136 0 
3 -1 0 0.576354 0.576354 14.6157 0.545172 0.46337 -0.545172 -0.46337 1 0 0.00493433 0 
3 -1 0 0.573482 0.573482 14.8441 0.542538 0.460421 -0.542538 -0.460421 1 0 0.00481138 0 
3 -1 0 0.570627 0.570627 15.0824 0.53991 0.457458 -0.53991 -0.457458 1 0 0.00468261 0 
3 -1 0 0.567789 0.567789 15.3313 0.537299 0.454607 -0.537299 -0.454607 1 0 0.00454816 0 
3 -1 0 0.56497 0.56497 15.5915 0.534701 0.451784 -0.534701 -0.451784 1 0 0.00440819 0 
3 -1 0 0.56217 0.56217 15.8637 0.532127 0.448957 -0.532127 -0.448957 1 0 0.00426294 0 
3 -1 0 0.559392 0.559392 16.1488 0.529575 0.446112 -0.529575 -0.446112 1 0 0.00411265 0 
3 -1 0 0.556637 0.556637 16.4478 0.527009 0.443351 -0.527009 -0.443351 1 0 0.00395764 0 
3 -1 0 0.553906 0.553906 16.7616 0.524518 0.440671 -0.524518 -0.440671 1 0 0.00379828 0 
3 -1 0 0.551201 0.551201 17.0913 0.52205 0.437993 -0.52205 -0.437993 1 0 0.00363499 0 
3 -1 0 0.548523 0.548523 17.4381 0.519641 0.435338 -0.519641 -0.435338 1 0 0.00346825 0 
3 -1 0 0.545874 0.545874 17.8034 0.517219 0.432695 -0.517219 -0.432695 1 0 0.0032986 0 
3 -1 0 0.543258 0.543258 18.1886 0.514822 0.430091 -0.514822 -0.430091 1 0 0.00312663 0 
3 -1 0 0.540675 0.540675 18.5952 0.512456 0.427588 -0.512456 -0.427588 1 0 0.00295301 0 
3 -1 0 0.538128 0.538128 19.025 0.510116 0.425011 -0.510116 -0.425011 1 0 0.00277845 0 
3 -1 0 0.53562 0.53562 19.4797 0.507805 0.422615 -0.507805 -0.422615 1 0 0.00260372 0 
3 -1 0 0.533153 0.533153 19.9615 0.505525 0.420215 -0.505525 -0.420215 0.999999 0 0.00242966 0 
3 -1 0 0.530731 0.530731 20.4726 0.503276 0.417861 -0.503276 -0.417861 0.999999 0 0.00225713 0 
3 -1 0 0.528357 0.528357 21.0154 0.501058 0.41551 -0.501058 -0.41551 0.999999 0 0.00208702 0 
3 -1 0 0.526035 0.526035 21.5924 0.498879 0.413252 -0.498879 -0.413252 0.999999 0 0.00192028 0 
3 -1 0 0.523767 0.523767 22.2065 0.496731 0.411085 -0.496731 -0.411085 0.999999 0 0.00175782 0 
3 -1 0 0.521558 0.521558 22.8607 0.494616 0.408857 -0.494616 -0.408857 0.999999 0 0.00160057 0 
3 -1 0 0.519413 0.519413 23.5582 0.492534 0.406841 -0.492534 -0.406841 0.999999 0 0.00144942 0 
3 -1 0 0.517335 0.517335 24.3023 0.490482 0.404772 -0.490482 -0.404772 0.999998 0 0.0013052 0 
3 -1 0 0.515329 0.515329 25.0966 0.488457 0.402848 -0.488457 -0.402848 0.999998 0 0.00116869 0 
3 -1 0 0.513399 0.513399 25.9447 0.486491 0.400913 -0.486491 -0.400913 0.999998 0 0.00104053 0 
3 -1 0 0.511551 0.511551 26.8503 0.48461 0.399121 -0.48461 -0.399121 0.999997 0 0.000921256 0 
3 -1 0 0.509788 0.509788 27.8169 0.482765 0.397339 -0.482765 -0.397339 0.999997 0 0.000811259 0 
3 -1 0 0.508114 0.508114 28.8481 0.480941 0.395689 -0.480941 -0.395689 0.999997 0 0.000710753 0 
3 -1 0 0.506534 0.506534 29.9471 0.479158 0.394054 -0.479158 -0.394054 0.999997 0 0.000619795 0 
3 -1 0 0.50505 0.50505 31.1169 0.477384 0.392582 -0.477384 -0.392582 0.999997 0 0.000538252 0 
3 -1 0 0.503664 0.503664 32.3603 0.475711 0.391142 -0.475711 -0.391142 0.999997 0 0.000465832 0 
3 -1 0 0.502377 0.502377 33.6792 0.47412 0.389714 -0.47412 -0.389714 0.999997 0 0.000402094 0 
3 -1 0 0.50119 0.50119 35.0755 0.472519 0.388514 -0.472519 -0.388514 0.999998 0 0.000346472 0 
3 -1 0 0.5001 0.5001 36.5506 0.470981 0.387293 -0.470981 -0.387293 0.999999 0 0.00029831 0 
3 -1 0 0.499107 0.499107 38.1052 0.469557 0.386184 -0.469557 -0.386184 1 0 0.000256898 0 
3 -1 0 0.498206 0.498206 39.7402 0.46809 0.385185 -0.46809 -0.385185 1 0 0.0002215 0 
3 -1 0 0.497393 0.497393 41.456 0.466795 0.384223 -0.466795 -0.384223 1 0 0.000191387 0 
3 -1 0 0.496663 0.496663 43.2532 0.465483 0.383329 -0.465483 -0.383329 1 0 0.000165874 0 
3 -1 0 0.49601 0.49601 45.1325 0.464262 0.382449 -0.464262 -0.382449 1.00001 0 0.000144316 0 
3 -1 0 0.49543 0.49543 47.0948 0.463099 0.381766 -0.463099 -0.381766 1.00001 0 0.000126131 0 
3 -1 0 0.494915 0.494915 49.1412 0.461968 0.381081 -0.461968 -0.381081 1.00001 0 0.000110804 0 
3 -1 0 0.49446 0.49446 51.2736 0.460961 0.380398 -0.460961 -0.380398 1.00001 0 9.78862e-05 0 
3 -1 0 0.494059 0.494059 53.4939 0.459901 0.379801 -0.459901 -0.379801 1.00001 0 8.70025e-05 0 
3 -1 0 0.493707 0.493707 55.8049 0.459061 0.379337 -0.459061 -0.379337 1.00001 0 7.78091e-05 0 
3 -1 0 0.493399 0.493399 58.2097 0.458122 0.378847 -0.458122 -0.378847 1.00001 0 7.00367e-05 0 
3 -1 0 0.493129 0.493129 60.7122 0.457388 0.378423 -0.457388 -0.378423 1.00001 0 6.34368e-05 0 
3 -1 0 0.492895 0.492895 63.3169 0.456572 0.377974 -0.456572 -0.377974 1.00001 0 5.78497e-05 0 
3 -1 0 0.492691 0.492691 66.0287 0.455944 0.377625 -0.455944 -0.377625 1.00002 0 5.31004e-05 0 
3 -1 0 0.492514 0.492514 68.8535 0.455168 0.377254 -0.455168 -0.377254 1.00002 0 4.91962e-05 0 
3 -1 0 0.492362 0.492362 71.7978 0.45473 0.377037 -0.45473 -0.377037 1.00002 0 4.57724e-05 0 
3 -1 0 0.49223 0.49223 74.8687 0.454061 0.376767 -0.454061 -0.376767 1.00002 0 4.28508e-05 0 
3 -1 0 0.492117 0.492117 78.0744 0.453521 0.376446 -0.453521 -0.376446 1.00004 0 4.00073e-05 0 
3 -1 0 0.49202 0.49202 81.4238 0.453253 0.376325 -0.453253 -0.376325 1.00005 0 3.78391e-05 0 
3 -1 0 0.491938 0.491938 84.927 0.452821 0.376142 -0.452821 -0.376142 1.00003 0 3.63016e-05 0 
3 -1 0 0.491868 0.491868 88.5948 0.452474 0.375937 -0.452474 -0.375937 1.00003 0 3.47679e-05 0 
3 -1 0 0.491808 0.491808 92.4396 0.452206 0.37585 -0.452206 -0.37585 1.00004 0 3.3437e-05 0 
3 -1 0 0.491758 0.491758 96.4749 0.451866 0.375638 -0.451866 -0.375638 1.00005 0 3.23095e-05 0 
3 -1 0 0.491716 0.491716 100.716 0.451678 0.375609 -0.451678 -0.375609 1.00008 0 3.08683e-05 0 
3 -1 0 0.491681 0.491681 105.179 0.451442 0.375502 -0.451442 -0.375502 1.0001 0 3.00173e-05 0 
3 -1 0 0.491652 0.491652 109.882 0.45125 0.375343 -0.45125 -0.375343 1.00012 0 2.92917e-05 0 
3 -1 0 0.491629 0.491629 114.847 0.451178 0.375375 -0.451178 -0.375375 1.00014 0 2.92325e-05 0 
3 -1 0 0.491609 0.491609 120.095 0.450964 0.375281 -0.450964 -0.375281 1.00021 0 2.81967e-05 0 
3 -1 0 0.491594 0.491594 125.654 0.450921 0.375197 -0.450921 -0.375197 1.00029 0 2.77968e-05 0 
3 -1 0 0.491581 0.491581 131.551 0.450649 0.375183 -0.450649 -0.375183 1.00037 0 2.85406e-05 0 
3 -1 0 0.491571 0.491571 137.818 0.450793 0.375213 -0.450793 -0.375213 1.00055 0 2.88665e-05 0 
3 -1 0 0.491563 0.491563 144.492 0.4505 0.375115 -0.4505 -0.375115 1.00089 0 2.80003e-05 0 
3 -1 0 0.491557 0.491557 151.613 0.450543 0.375068 -0.450543 -0.375068 1.00142 0 2.79734e-05 0 
3 -1 0 0.491553 0.491553 159.227 0.450646 0.375156 -0.450646 -0.375156 1.00226 0 2.96317e-05 0 
3 -1 0 0.491549 0.491549 167.386 0.450568 0.375039 -0.450568 -0.375039 1.00371 0 3.38302e-05 0 
3 -1 0 0.491547 0.491547 176.148 0.450611 0.375004 -0.450611 -0.375004 1.00664 0 5.1682e-05 0 
3 -1 0 0.491545 0.491545 185.582 0.450419 0.375084 -0.450419 -0.375084 1.01181 0 8.4563e-05 0 
3 -1 0 0.491544 0.491544 195.762 0.450578 0.375127 -0.450578 -0.375127 1.02132 0 0.000163565 0 
3 -1 0 0.491543 0.491543 206.776 0.450409 0.374955 -0.450409 -0.374955 1.04017 0 0.000567773 0 
3 -1 0 0.491542 0.491542 218.724 0.450484 0.375077 -0.450484 -0.375077 1.07868 0 0.00178894 0 
3 -1 0 0.491542 0.491542 231.719 0.450496 0.375112 -0.450496 -0.375112 1.1666 0 0.00440041 0 
3 -1 0 0.491542 0.491542 245.893 0.450582 0.375072 -0.450582 -0.375072 1.35958 0 0.0129463 0 
3 -1 0 0.491542 0.491542 261.399 0.450389 0.375118 -0.450389 -0.375118 1.85148 0 0.0396942 0 
3 -1 0 0.491542 0.491542 278.413 0.450528 0.375018 -0.450528 -0.375018 2.07811 0 0.262298 0 
3 -1 0 0.491541 0.491541 297.14 0.450473 0.375013 -0.450473 -0.375013 3.19198 0 0.253186 0 
3 -1 0 0.491541 0.491541 317.822 0.450429 0.37511 -0.450429 -0.37511 2.75854 0 0.35318 0 
3 -1 0 0.491541 0.491541 340.743 0.450524 0.375088 -0.450524 -0.375088 2.43103 0 0.410402 0 
3 -1 0 0.491541 0.491541 366.241 0.450307 0.375008 -0.450307 -0.375008 1.93537 0 0.516624 0 
3 -1 0 0.491541 0.491541 394.717 0.450507 0.375103 -0.450507 -0.375103 1.70997 0 0.584802 0 
3 -1 0 0.491541 0.491541 426.657 0.450265 0.375101 -0.450265 -0.375101 1.50102 0 0.666212 0 
3 -1 0 0.491541 0.491541 462.647 0.450504 0.37511 -0.450504 -0.37511 1.14843 0 0.870751 0 
3 -1 0 0.491541 0.491541 503.406 0.450187 0.375096 -0.450187 -0.375096 0.978021 0 1.02247 0 
3 -1 0 0.491541 0.491541 549.816 0.450519 0.375026 -0.450519 -0.375026 0.824586 0 1.21273 0 
3 -1 0 0.491541 0.491541 602.978 0.450466 0.374828 -0.450466 -0.374828 0.809853 0 1.23479 0 
3 -1 0 0.491541 0.491541 631.009 0.450169 0.375121 -0.450169 -0.375121 0.741103 0 1.34934 0 
3 -1 0 0.491541 0.491541 696.408 0.450416 0.37506 -0.450416 -0.37506 0.61296 0 1.63143 0 
3 -1 0 0.491541 0.491541 768.707 0.450254 0.375056 -0.450254 -0.375056 0.530158 0 1.88623 0 
3 -1 0 0.491541 0.491541 857.507 0.450231 0.375077 -0.450233 -0.375077 0.342441 0 2.92021 0 
3 -1 0 0.491541 0.491541 895.119 0.450499 0.374857 -0.450499 -0.374857 0.282451 0 3.54044 0 
3 -1 0 0.491541 0.491541 1007.42 0.450539 0.374729 -0.450546 -0.374744 0.21742 0 4.59938 0 
3 -1 0 0.491541 0.491541 1143.31 0.450413 0.374671 -0.450409 -0.374666 0.149512 0 6.68843 0 
3 -1 0 0.491541 0.491541 1308.86 0.449956 0.374416 -0.449945 -0.374422 0.160271 0 6.23941 0 
3 -1 0 0.491541 0.491541 1511.74 0.450417 0.374853 -0.450413 -0.374848 0.0532174 0 18.7909 0 
3 -1 0 0.491541 0.491541 1701.61 0.450214 0.374805 -0.450131 -0.374758 0.496618 0 2.01362 0 
3 -1 0 0.491541 0.491541 1755.51 0.450481 0.375067 -0.450484 -0.375068 0.049473 0 20.213 0 
3 -1 0 0.491541 0.491541 1905.43 0.450227 0.375105 -0.450254 -0.375108 0.384202 0 2.6028 0 
3 -1 0 0.491541 0.491541 2031.08 0.450455 0.374956 -0.450421 -0.374933 1.45519 0 0.687196 0 
3 -1 0 0.491541 0.491541 2244.43 0.450052 0.37464 -0.450159 -0.374667 2.03888 0 0.490465 0 
3 -1 0 0.491541 0.491541 2636.37 0.44982 0.374801 -0.449714 -0.374895 1.08598 0 0.920829 0 
3 -1 0 0.491541 0.491541 3144.7 0.450065 0.375087 -0.449805 -0.375121 1.69001 0 0.591714 0 
3 -1 0 0.491541 0.491541 3453.27 0.449988 0.374653 -0.450317 -0.374929 1.61695 0 0.618448 0 
3 -1 0 0.491541 0.491541 3453.27 0.450565 0.375108 -0.45046 -0.375117 1.61695 0 0.618448 0 
