3 -1 0 1 1 6.25 0.999705 0.999811 -0.999692 -0.99999 0.999711 0 0.00186635 0 
3 -1 0 0.9995 0.9995 6.29577 0.999918 0.999918 -0.999917 -0.999917 0.999711 0 0.00186635 0 
3 -1 0 0.985105 0.985105 6.67191 0.999917 0.999917 -0.999917 -0.999917 1 0 0.00186744 0 
3 -1 0 0.98428 0.98428 6.6943 0.999881 0.999912 -0.999881 -0.999912 1 0 0.00186744 0 
3 -1 0 0.983042 0.983042 6.72808 0.999881 0.999912 -0.999881 -0.999912 1 0 0.00186775 0 
3 -1 0 0.980567 0.980567 6.79626 0.999881 0.999912 -0.999881 -0.999912 1 0 0.00186855 0 
3 -1 0 0.975617 0.975617 6.93524 0.999879 0.999907 -0.999879 -0.999907 1 0 0.00186744 0 
3 -1 0 0.970617 0.970617 7.07926 0.999879 0.999907 -0.999879 -0.999907 1 0 0.00186744 0 
3 -1 0 0.965617 0.965617 7.22703 0.999879 0.999906 -0.999879 -0.999906 1 0 0.00186744 0 
3 -1 0 0.960617 0.960617 7.37867 0.999879 0.999907 -0.999879 -0.999907 1 0 0.00186743 0 
3 -1 0 0.955617 0.955617 7.53431 0.999878 0.999906 -0.999878 -0.999906 1 0 0.00186742 0 
3 -1 0 0.950617 0.950617 7.69408 0.999877 0.999905 -0.999877 -0.999905 1 0 0.00186741 0 
3 -1 0 0.945617 0.945617 7.85811 0.999876 0.999903 -0.999876 -0.999903 1 0 0.00186739 0 
3 -1 0 0.940617 0.940617 8.02653 0.999875 0.9999 -0.999875 -0.9999 1 0 0.00186737 0 
3 -1 0 0.935617 0.935617 8.19949 0.999873 0.999897 -0.999873 -0.999897 1 0 0.00186734 0 
3 -1 0 0.930617 0.930617 8.37713 0.99987 0.999893 -0.99987 -0.999893 1 0 0.00186731 0 
3 -1 0 0.925617 0.925617 8.55961 0.999867 0.999888 -0.999867 -0.999888 1 0 0.00186726 0 
3 -1 0 0.920617 0.920617 8.74708 0.999864 0.999881 -0.999864 -0.999881 1 0 0.0018672 0 
3 -1 0 0.915617 0.915617 8.93972 0.999858 0.999872 -0.999858 -0.999872 1 0 0.00186713 0 
3 -1 0 0.910617 0.910617 9.13768 0.999853 0.999863 -0.999853 -0.999863 1 0 0.00186703 0 
3 -1 0 0.905617 0.905617 9.34116 0.999846 0.99985 -0.999846 -0.99985 1 0 0.00186692 0 
3 -1 0 0.900617 0.900617 9.55033 0.999836 0.999835 -0.999836 -0.999835 1 0 0.00186679 0 
3 -1 0 0.895617 0.895617 9.76539 0.999826 0.999817 -0.999826 -0.999817 1 0 0.00186663 0 
3 -1 0 0.890617 0.890617 9.98654 0.999814 0.999797 -0.999814 -0.999797 1 0 0.00186644 0 
3 -1 0 0.885618 0.885618 10.214 0.999798 0.999771 -0.999798 -0.999771 1 0 0.00186622 0 
3 -1 0 0.880618 0.880618 10.4479 0.999782 0.999742 -0.999782 -0.999742 1 0 0.00186596 0 
3 -1 0 0.875618 0.875618 10.6886 0.999762 0.999709 -0.999762 -0.999709 1 0 0.00186565 0 
3 -1 0 0.870618 0.870618 10.9363 0.999737 0.999668 -0.999737 -0.999668 1 0 0.0018653 0 
3 -1 0 0.865618 0.865618 11.1911 0.999711 0.999623 -0.999711 -0.999623 1 0 0.00186489 0 
3 -1 0 0.860618 0.860618 11.4535 0.999681 0.999572 -0.999681 -0.999572 1 0 0.00186442 0 
3 -1 0 0.855619 0.855619 11.7235 0.999642 0.999513 -0.999642 -0.999513 1 0 0.00186388 0 
3 -1 0 0.850619 0.850619 12.0016 0.999603 0.999446 -0.999603 -0.999446 1 0 0.00186326 0 
3 -1 0 0.84562 0.84562 12.288 0.999558 0.999369 -0.999558 -0.999369 1 0 0.00186256 0 
3 -1 0 0.840621 0.840621 12.5829 0.999501 0.999281 -0.999501 -0.999281 1 0 0.00186177 0 
3 -1 0 0.835622 0.835622 12.8867 0.999444 0.999183 -0.999444 -0.999183 1 0 0.00186087 0 
3 -1 0 0.830623 0.830623 13.1997 0.999379 0.999072 -0.999379 -0.999072 1 0 0.00185985 0 
3 -1 0 0.825624 0.825624 13.5223 0.999301 0.99891 -0.999301 -0.99891 1 0 0.00185871 0 
3 -1 0 0.820626 0.820626 13.8547 0.999219 0.998768 -0.999219 -0.998768 1 0 0.00185743 0 
3 -1 0 0.815629 0.815629 14.1974 0.999127 0.99861 -0.999127 -0.99861 1 0 0.00185599 0 
3 -1 0 0.810632 0.810632 14.5508 0.999033 0.998499 -0.999033 -0.998499 1 0 0.00185439 0 
3 -1 0 0.805636 0.805636 14.9151 0.998917 0.998301 -0.998917 -0.998301 1 0 0.0018526 0 
3 -1 0 0.800641 0.800641 15.2908 0.998789 0.998081 -0.998789 -0.998081 1 0 0.00185061 0 
3 -1 0 0.795647 0.795647 15.6784 0.998659 0.997825 -0.998659 -0.997825 1 0 0.0018484 0 
3 -1 0 0.790654 0.790654 16.0781 0.9985 0.997554 -0.9985 -0.997554 1 0 0.00184595 0 
3 -1 0 0.785663 0.785663 16.4906 0.998325 0.997254 -0.998325 -0.997254 1 0 0.00184324 0 
3 -1 0 0.780674 0.780674 16.9163 0.998155 0.997001 -0.998155 -0.997001 1 0 0.00184025 0 
3 -1 0 0.775688 0.775688 17.3555 0.997941 0.996636 -0.997941 -0.996636 1 0 0.00183694 0 
3 -1 0 0.770705 0.770705 17.8088 0.997706 0.996233 -0.997706 -0.996233 1 0 0.00183331 0 
3 -1 0 0.765725 0.765725 18.2767 0.997458 0.995717 -0.997458 -0.995717 1 0 0.00182931 0 
3 -1 0 0.760749 0.760749 18.7597 0.997174 0.995227 -0.997174 -0.995227 1 0 0.00182493 0 
3 -1 0 0.755778 0.755778 19.2582 0.996862 0.994691 -0.996862 -0.994691 1 0 0.00182012 0 
3 -1 0 0.750813 0.750813 19.7728 0.996532 0.994179 -0.996532 -0.994179 1 0 0.00181487 0 
3 -1 0 0.745855 0.745855 20.304 0.996159 0.993537 -0.996159 -0.993537 1 0 0.00180912 0 
3 -1 0 0.740906 0.740906 20.8522 0.995751 0.992836 -0.995751 -0.992836 1 0 0.00180286 0 
3 -1 0 0.735966 0.735966 21.418 0.995323 0.991948 -0.995323 -0.991948 1 0 0.00179605 0 
3 -1 0 0.731037 0.731037 22.0017 0.99484 0.991117 -0.99484 -0.991117 1 0 0.00178865 0 
3 -1 0 0.726122 0.726122 22.6039 0.994315 0.990214 -0.994315 -0.990214 1 0 0.00178061 0 
3 -1 0 0.721223 0.721223 23.225 0.993758 0.989341 -0.993758 -0.989341 1 0 0.00177192 0 
3 -1 0 0.716341 0.716341 23.8652 0.993142 0.988272 -0.993142 -0.988272 1 0 0.00176252 0 
3 -1 0 0.711481 0.711481 24.5248 0.992476 0.987115 -0.992476 -0.987115 1 0 0.00175238 0 
3 -1 0 0.706644 0.706644 25.2041 0.991768 0.985741 -0.991768 -0.985741 1 0 0.00174147 0 
3 -1 0 0.701834 0.701834 25.9033 0.990996 0.984389 -0.990996 -0.984389 1 0 0.00172975 0 
3 -1 0 0.697056 0.697056 26.6223 0.990166 0.982934 -0.990166 -0.982934 1 0 0.00171721 0 
3 -1 0 0.692313 0.692313 27.361 0.989284 0.981518 -0.989284 -0.981518 1 0 0.0017038 0 
3 -1 0 0.68761 0.68761 28.1194 0.988334 0.979851 -0.988334 -0.979851 1 0 0.0016895 0 
3 -1 0 0.682952 0.682952 28.897 0.987322 0.978071 -0.987322 -0.978071 1 0 0.00167431 0 
3 -1 0 0.678342 0.678342 29.6934 0.98624 0.976166 -0.98624 -0.976166 1 0 0.00165822 0 
3 -1 0 0.673787 0.673787 30.5081 0.9851 0.974147 -0.9851 -0.974147 1 0 0.00164121 0 
3 -1 0 0.669292 0.669292 31.3403 0.983895 0.972007 -0.983895 -0.972007 1 0 0.0016233 0 
3 -1 0 0.664861 0.664861 32.1891 0.982621 0.96975 -0.982621 -0.96975 1 0 0.00160449 0 
3 -1 0 0.6605 0.6605 33.0537 0.981288 0.967366 -0.981288 -0.967366 1 0 0.00158481 0 
3 -1 0 0.656212 0.656212 33.933 0.979894 0.964862 -0.979894 -0.964862 1 0 0.00156429 0 
3 -1 0 0.652004 0.652004 34.8258 0.978425 0.962266 -0.978425 -0.962266 1 0 0.00154295 0 
3 -1 0 0.647878 0.647878 35.7309 0.976912 0.959532 -0.976912 -0.959532 1 0 0.00152085 0 
3 -1 0 0.643837 0.643837 36.6473 0.975343 0.956686 -0.975343 -0.956686 1 0 0.00149802 0 
3 -1 0 0.639886 0.639886 37.5736 0.973705 0.953688 -0.973705 -0.953688 1 0 0.00147453 0 
3 -1 0 0.636025 0.636025 38.5086 0.972035 0.950645 -0.972035 -0.950645 1 0 0.00145042 0 
3 -1 0 0.632257 0.632257 39.4514 0.970324 0.947504 -0.970324 -0.947504 1 0 0.00142574 0 
3 -1 0 0.628583 0.628583 40.4008 0.968579 0.944289 -0.968579 -0.944289 1 0 0.00140057 0 
3 -1 0 0.625002 0.625002 41.3558 0.966787 0.940956 -0.966787 -0.940956 1 0 0.00137496 0 
3 -1 0 0.621515 0.621515 42.3155 0.964961 0.93754 -0.964961 -0.93754 1 0 0.00134897 0 
3 -1 0 0.618122 0.618122 43.2793 0.963111 0.934007 -0.963111 -0.934007 0.999164 0 0.00132574 0 
3 -1 0 0.61482 0.61482 44.2463 0.961226 0.930438 -0.961226 -0.930438 0.999176 0 0.00129892 0 
3 -1 0 0.611609 0.611609 45.2161 0.959317 0.926812 -0.959317 -0.926812 0.999189 0 0.0012719 0 
3 -1 0 0.608487 0.608487 46.1882 0.957389 0.923233 -0.957389 -0.923233 0.999205 0 0.00124473 0 
3 -1 0 0.605452 0.605452 47.1622 0.955442 0.919508 -0.955442 -0.919508 0.999221 0 0.00121744 0 
3 -1 0 0.602501 0.602501 48.1378 0.95348 0.915734 -0.95348 -0.915734 0.999238 0 0.00119009 0 
3 -1 0 0.599633 0.599633 49.1148 0.951512 0.911883 -0.951512 -0.911883 0.999256 0 0.00116271 0 
3 -1 0 0.596844 0.596844 50.0932 0.949529 0.908051 -0.949529 -0.908051 0.999275 0 0.00113534 0 
3 -1 0 0.594132 0.594132 51.073 0.947538 0.904182 -0.947538 -0.904182 0.999293 0 0.001108 0 
3 -1 0 0.591495 0.591495 52.0541 0.945555 0.900263 -0.945555 -0.900263 0.999312 0 0.00108074 0 
3 -1 0 0.58893 0.58893 53.0366 0.943557 0.896309 -0.943557 -0.896309 0.999331 0 0.00105357 0 
3 -1 0 0.586434 0.586434 54.0207 0.941558 0.892328 -0.941558 -0.892328 0.99935 0 0.00102652 0 
3 -1 0 0.584005 0.584005 55.0066 0.939573 0.888364 -0.939573 -0.888364 0.999369 0 0.000999618 0 
3 -1 0 0.581641 0.581641 55.9945 0.937577 0.884392 -0.937577 -0.884392 0.999387 0 0.000972882 0 
3 -1 0 0.579338 0.579338 56.9847 0.935584 0.880401 -0.935584 -0.880401 0.999405 0 0.000946331 0 
3 -1 0 0.577096 0.577096 57.9775 0.933615 0.876348 -0.933615 -0.876348 0.999423 0 0.000919984 0 
3 -1 0 0.574911 0.574911 58.9732 0.931634 0.872295 -0.931634 -0.872295 0.99944 0 0.000893858 0 
3 -1 0 0.572781 0.572781 59.9723 0.92966 0.868228 -0.92966 -0.868228 0.999457 0 0.000867967 0 
3 -1 0 0.570705 0.570705 60.9751 0.927695 0.864274 -0.927695 -0.864274 0.999474 0 0.000842317 0 
3 -1 0 0.56868 0.56868 61.982 0.925738 0.860261 -0.925738 -0.860261 0.99949 0 0.000816941 0 
3 -1 0 0.566705 0.566705 62.9934 0.923791 0.856239 -0.923791 -0.856239 0.999505 0 0.000791841 0 
3 -1 0 0.564778 0.564778 64.0099 0.921832 0.852159 -0.921832 -0.852159 0.999521 0 0.000767021 0 
3 -1 0 0.562896 0.562896 65.0319 0.919906 0.84816 -0.919906 -0.84816 0.999536 0 0.000742511 0 
3 -1 0 0.561059 0.561059 66.0598 0.917993 0.844156 -0.917993 -0.844156 0.99955 0 0.000718312 0 
3 -1 0 0.559265 0.559265 67.0943 0.916083 0.840098 -0.916083 -0.840098 0.999564 0 0.000694287 0 
3 -1 0 0.557512 0.557512 68.1358 0.914194 0.836121 -0.914194 -0.836121 1 0 0.000670041 0 
3 -1 0 0.5558 0.5558 69.1848 0.912319 0.832142 -0.912319 -0.832142 1 0 0.000646859 0 
3 -1 0 0.554126 0.554126 70.2421 0.91045 0.828135 -0.91045 -0.828135 1 0 0.000624028 0 
3 -1 0 0.552489 0.552489 71.308 0.908602 0.82413 -0.908602 -0.82413 1 0 0.000601556 0 
3 -1 0 0.550889 0.550889 72.3832 0.906768 0.820149 -0.906768 -0.820149 1 0 0.000579452 0 
3 -1 0 0.549323 0.549323 73.4684 0.904942 0.81627 -0.904942 -0.81627 1 0 0.000557725 0 
3 -1 0 0.547792 0.547792 74.5641 0.903138 0.812359 -0.903138 -0.812359 1 0 0.000536383 0 
3 -1 0 0.546294 0.546294 75.671 0.901349 0.808447 -0.901349 -0.808447 1 0 0.000515435 0 
3 -1 0 0.544828 0.544828 76.7898 0.899567 0.804506 -0.899567 -0.804506 1 0 0.000494889 0 
3 -1 0 0.543393 0.543393 77.9211 0.897809 0.800609 -0.897809 -0.800609 1 0 0.000474751 0 
3 -1 0 0.541988 0.541988 79.0656 0.896067 0.796802 -0.896067 -0.796802 1 0 0.000455029 0 
3 -1 0 0.540613 0.540613 80.2242 0.894328 0.792953 -0.894328 -0.792953 1 0 0.000435731 0 
3 -1 0 0.539266 0.539266 81.3975 0.892619 0.789123 -0.892619 -0.789123 1 0 0.000416861 0 
3 -1 0 0.537948 0.537948 82.5863 0.890925 0.785382 -0.890925 -0.785382 1 0 0.000398428 0 
3 -1 0 0.536656 0.536656 83.7913 0.889244 0.781557 -0.889244 -0.781557 1 0 0.000380436 0 
3 -1 0 0.535392 0.535392 85.0135 0.887583 0.777874 -0.887583 -0.777874 1 0 0.000362891 0 
3 -1 0 0.534153 0.534153 86.2536 0.885938 0.774192 -0.885938 -0.774192 1 0 0.000345798 0 
3 -1 0 0.532939 0.532939 87.5126 0.884308 0.770423 -0.884308 -0.770423 1 0 0.000329162 0 
3 -1 0 0.531751 0.531751 88.7913 0.882697 0.766825 -0.882697 -0.766825 1 0 0.000312986 0 
3 -1 0 0.530586 0.530586 90.0906 0.881102 0.763227 -0.881102 -0.763227 1 0 0.000297274 0 
3 -1 0 0.529445 0.529445 91.4116 0.879521 0.759554 -0.879521 -0.759554 1 0 0.000282029 0 
3 -1 0 0.528328 0.528328 92.7552 0.87796 0.756043 -0.87796 -0.756043 1 0 0.000267253 0 
3 -1 0 0.527234 0.527234 94.1224 0.876414 0.752531 -0.876414 -0.752531 1 0 0.000252949 0 
3 -1 0 0.526162 0.526162 95.5143 0.874883 0.74892 -0.874883 -0.74892 1 0 0.000239117 0 
3 -1 0 0.525112 0.525112 96.9321 0.87337 0.745522 -0.87337 -0.745522 1 0 0.000225758 0 
3 -1 0 0.524083 0.524083 98.3768 0.871874 0.742122 -0.871874 -0.742122 1 0 0.000212872 0 
3 -1 0 0.523076 0.523076 99.8497 0.870391 0.738597 -0.870391 -0.738597 1 0 0.000200457 0 
3 -1 0 0.52209 0.52209 101.352 0.868927 0.73531 -0.868927 -0.73531 1 0 0.000188514 0 
3 -1 0 0.521124 0.521124 102.885 0.867479 0.732029 -0.867479 -0.732029 1 0 0.000177038 0 
3 -1 0 0.520179 0.520179 104.45 0.866044 0.72861 -0.866044 -0.72861 1 0 0.000166028 0 
3 -1 0 0.519254 0.519254 106.048 0.864627 0.725449 -0.864627 -0.725449 1 0 0.00015548 0 
3 -1 0 0.518349 0.518349 107.681 0.863225 0.722283 -0.863225 -0.722283 1 0 0.000145389 0 
3 -1 0 0.517463 0.517463 109.35 0.861838 0.719068 -0.861838 -0.719068 1 0 0.00013575 0 
3 -1 0 0.516596 0.516596 111.057 0.860465 0.715986 -0.860465 -0.715986 1 0 0.000126557 0 
3 -1 0 0.515749 0.515749 112.803 0.859106 0.712896 -0.859106 -0.712896 1 0 0.000117804 0 
3 -1 0 0.514921 0.514921 114.59 0.857761 0.709862 -0.857761 -0.709862 1 0 0.000109483 0 
3 -1 0 0.514111 0.514111 116.42 0.856428 0.706823 -0.856428 -0.706823 1 0 0.000101586 0 
3 -1 0 0.51332 0.51332 118.294 0.855107 0.703775 -0.855107 -0.703775 1 0 9.41049e-05 0 
3 -1 0 0.512547 0.512547 120.215 0.853798 0.701009 -0.853798 -0.701009 1 0 8.70299e-05 0 
3 -1 0 0.511792 0.511792 122.183 0.8525 0.698129 -0.8525 -0.698129 1 0 8.0351e-05 0 
3 -1 0 0.511055 0.511055 124.202 0.851211 0.695236 -0.851211 -0.695236 1 0 7.40578e-05 0 
3 -1 0 0.510336 0.510336 126.272 0.849926 0.692543 -0.849926 -0.692543 1 0 6.81392e-05 0 
3 -1 0 0.509636 0.509636 128.397 0.848701 0.689731 -0.848701 -0.689731 1 0 6.25837e-05 0 
3 -1 0 0.508952 0.508952 130.578 0.847523 0.687141 -0.847523 -0.687141 1 0 5.73791e-05 0 
3 -1 0 0.508286 0.508286 132.817 0.846356 0.684587 -0.846356 -0.684587 1 0 5.25132e-05 0 
3 -1 0 0.507638 0.507638 135.117 0.845199 0.681957 -0.845199 -0.681957 1 0 4.7973e-05 0 
3 -1 0 0.507007 0.507007 137.481 0.844051 0.679414 -0.844051 -0.679414 1 0 4.37457e-05 0 
3 -1 0 0.506393 0.506393 139.91 0.842911 0.677082 -0.842911 -0.677082 1 0 3.98179e-05 0 
3 -1 0 0.505797 0.505797 142.406 0.841777 0.674625 -0.841777 -0.674625 1 0 3.61761e-05 0 
3 -1 0 0.505217 0.505217 144.974 0.840647 0.67227 -0.840647 -0.67227 1 0 3.28068e-05 0 
3 -1 0 0.504654 0.504654 147.614 0.839521 0.670033 -0.839521 -0.670033 1 0 2.96965e-05 0 
3 -1 0 0.504108 0.504108 150.331 0.838395 0.667701 -0.838395 -0.667701 1 0 2.68316e-05 0 
3 -1 0 0.503579 0.503579 153.126 0.837268 0.665642 -0.837268 -0.665642 1 0 2.41985e-05 0 
3 -1 0 0.503067 0.503067 156.002 0.836247 0.663477 -0.836247 -0.663477 1 0 2.17839e-05 0 
3 -1 0 0.50257 0.50257 158.962 0.835248 0.661417 -0.835248 -0.661417 1 0 1.95747e-05 0 
3 -1 0 0.502091 0.502091 162.01 0.83425 0.659497 -0.83425 -0.659497 1 0 1.75579e-05 0 
3 -1 0 0.501627 0.501627 165.148 0.833248 0.657561 -0.833248 -0.657561 1 0 1.57209e-05 0 
3 -1 0 0.50118 0.50118 168.378 0.83224 0.65564 -0.83224 -0.65564 1 0 1.40514e-05 0 
3 -1 0 0.500748 0.500748 171.705 0.831223 0.653703 -0.831223 -0.653703 1 0 1.25375e-05 0 
3 -1 0 0.500332 0.500332 175.13 0.830196 0.652044 -0.830196 -0.652044 1 0 1.11678e-05 0 
3 -1 0 0.499932 0.499932 178.658 0.829273 0.650403 -0.829273 -0.650403 1 0 9.93122e-06 0 
3 -1 0 0.499548 0.499548 182.291 0.828408 0.648705 -0.828408 -0.648705 1 0 8.81726e-06 0 
3 -1 0 0.499178 0.499178 186.033 0.827525 0.647163 -0.827525 -0.647163 1 0 7.8159e-06 0 
3 -1 0 0.498824 0.498824 189.886 0.82664 0.645576 -0.82664 -0.645576 1 0 6.91763e-06 0 
3 -1 0 0.498484 0.498484 193.854 0.825735 0.644189 -0.825735 -0.644189 1 0 6.11347e-06 0 
3 -1 0 0.498159 0.498159 197.941 0.824832 0.642772 -0.824832 -0.642772 1 0 5.39503e-06 0 
3 -1 0 0.497848 0.497848 202.148 0.823887 0.641408 -0.823887 -0.641408 1 0 4.75436e-06 0 
3 -1 0 0.497551 0.497551 206.481 0.823157 0.640057 -0.823157 -0.640057 1 0 4.18415e-06 0 
3 -1 0 0.497267 0.497267 210.941 0.822377 0.63885 -0.822377 -0.63885 1 0 3.67746e-06 0 
3 -1 0 0.496997 0.496997 215.533 0.821658 0.637713 -0.821658 -0.637713 1 0 3.22815e-06 0 
3 -1 0 0.49674 0.49674 220.26 0.820907 0.636495 -0.820907 -0.636495 1 0 2.83032e-06 0 
3 -1 0 0.496496 0.496496 225.126 0.820147 0.635468 -0.820147 -0.635468 1 0 2.4786e-06 0 
3 -1 0 0.496264 0.496264 230.133 0.819445 0.634477 -0.819445 -0.634477 1 0 2.16816e-06 0 
3 -1 0 0.496044 0.496044 235.287 0.818698 0.633433 -0.818698 -0.633433 1 0 1.89453e-06 0 
3 -1 0 0.495836 0.495836 240.589 0.818026 0.632579 -0.818026 -0.632579 1 0 1.65377e-06 0 
3 -1 0 0.495638 0.495638 246.046 0.817404 0.631643 -0.817404 -0.631643 1 0 1.44203e-06 0 
3 -1 0 0.495452 0.495452 251.66 0.816726 0.63084 -0.816726 -0.63084 1 0 1.2561e-06 0 
3 -1 0 0.495276 0.495276 257.435 0.81613 0.630073 -0.81613 -0.630073 1 0 1.09296e-06 0 
3 -1 0 0.49511 0.49511 263.377 0.815543 0.629295 -0.815543 -0.629295 1 0 9.50087e-07 0 
3 -1 0 0.494954 0.494954 269.489 0.814888 0.628612 -0.814888 -0.628612 1 0 8.25036e-07 0 
3 -1 0 0.494806 0.494806 275.776 0.814337 0.627886 -0.814337 -0.627886 1 0 7.15783e-07 0 
3 -1 0 0.494668 0.494668 282.244 0.813881 0.627336 -0.813881 -0.627336 1 0 6.20251e-07 0 
3 -1 0 0.494538 0.494538 288.898 0.813349 0.626705 -0.813349 -0.626705 1 0 5.36862e-07 0 
3 -1 0 0.494416 0.494416 295.742 0.812722 0.6262 -0.812722 -0.6262 1 0 4.63949e-07 0 
3 -1 0 0.494302 0.494302 302.784 0.812212 0.625586 -0.812212 -0.625586 1 0 4.00577e-07 0 
3 -1 0 0.494195 0.494195 310.029 0.811918 0.625179 -0.811918 -0.625179 1 0 3.45559e-07 0 
3 -1 0 0.494095 0.494095 317.483 0.811536 0.624732 -0.811536 -0.624732 1 0 2.97365e-07 0 
3 -1 0 0.494001 0.494001 325.154 0.811061 0.624228 -0.811061 -0.624228 1 0 2.55642e-07 0 
3 -1 0 0.493914 0.493914 333.049 0.810478 0.623907 -0.810478 -0.623907 1 0 2.19536e-07 0 
3 -1 0 0.493832 0.493832 341.176 0.810364 0.623465 -0.810364 -0.623465 1 0 1.88003e-07 0 
3 -1 0 0.493756 0.493756 349.543 0.809903 0.623181 -0.809903 -0.623181 1 0 1.60752e-07 0 
3 -1 0 0.493685 0.493685 358.159 0.809575 0.622736 -0.809575 -0.622736 1 0 1.37159e-07 0 
3 -1 0 0.49362 0.49362 367.033 0.80938 0.622442 -0.80938 -0.622442 1 0 1.16757e-07 0 
3 -1 0 0.493558 0.493558 376.175 0.809002 0.622254 -0.809002 -0.622254 1 0 9.91385e-08 0 
3 -1 0 0.493501 0.493501 385.596 0.808583 0.621975 -0.808583 -0.621975 1 0 8.39473e-08 0 
3 -1 0 0.493448 0.493448 395.307 0.808539 0.621754 -0.808539 -0.621754 1 0 7.08602e-08 0 
3 -1 0 0.493399 0.493399 405.32 0.808279 0.621474 -0.808279 -0.621474 1 0 6.01301e-08 0 
3 -1 0 0.493354 0.493354 415.648 0.80787 0.621321 -0.80787 -0.621321 1 0 5.04256e-08 0 
3 -1 0 0.493312 0.493312 426.304 0.807562 0.621065 -0.807562 -0.621065 1 0 4.2051e-08 0 
3 -1 0 0.493273 0.493273 437.303 0.807473 0.620936 -0.807473 -0.620936 1 0 3.4895e-08 0 
3 -1 0 0.493237 0.493237 448.66 0.807464 0.620738 -0.807464 -0.620738 1 0 2.87445e-08 0 
3 -1 0 0.493204 0.493204 460.392 0.807295 0.620564 -0.807295 -0.620564 0.999999 0 2.34693e-08 0 
3 -1 0 0.493173 0.493173 472.516 0.806953 0.620478 -0.806953 -0.620478 0.999998 0 1.89059e-08 0 
3 -1 0 0.493144 0.493144 485.051 0.806773 0.62021 -0.806773 -0.62021 0.999997 0 1.49447e-08 0 
3 -1 0 0.493118 0.493118 498.017 0.806877 0.620229 -0.806877 -0.620229 0.999996 0 1.07491e-08 0 
3 -1 0 0.493094 0.493094 511.435 0.80665 0.620011 -0.80665 -0.620011 0.999994 0 7.35342e-09 0 
3 -1 0 0.493072 0.493072 525.328 0.806452 0.620016 -0.806452 -0.620016 0.999992 0 4.13913e-09 0 
3 -1 0 0.493051 0.493051 539.72 0.806447 0.61979 -0.806447 -0.61979 0.99999 0 2.66082e-09 0 
3 -1 0 0.493033 0.493033 554.637 0.806147 0.619834 -0.806147 -0.619834 0.999987 0 -8.95883e-11 0 
3 -1 0 0.493015 0.493015 570.107 0.806306 0.619625 -0.806306 -0.619625 0.999984 0 -2.87936e-09 0 
3 -1 0 0.492999 0.492999 586.159 0.806171 0.619675 -0.806171 -0.619675 0.999981 0 -3.93796e-09 0 
3 -1 0 0.492985 0.492985 602.825 0.806196 0.619523 -0.806196 -0.619523 0.999976 0 -7.00114e-09 0 
3 -1 0 0.492972 0.492972 620.14 0.805991 0.619487 -0.805991 -0.619487 0.999971 0 -1.0477e-08 0 
3 -1 0 0.492959 0.492959 638.139 0.805656 0.619477 -0.805656 -0.619477 0.999966 0 -1.62271e-08 0 
3 -1 0 0.492948 0.492948 656.861 0.805802 0.619366 -0.805802 -0.619366 0.999959 0 -3.53734e-08 0 
3 -1 0 0.492938 0.492938 676.349 0.805954 0.619381 -0.805954 -0.619381 0.999951 0 -4.5656e-08 0 
3 -1 0 0.492928 0.492928 696.647 0.805849 0.619225 -0.805849 -0.619225 0.99994 0 -3.86044e-08 0 
3 -1 0 0.49292 0.49292 717.805 0.805868 0.619309 -0.805868 -0.619309 0.999928 0 -5.07358e-08 0 
3 -1 0 0.492912 0.492912 739.873 0.805611 0.619081 -0.805611 -0.619081 0.999914 0 -6.63686e-08 0 
3 -1 0 0.492905 0.492905 762.908 0.805704 0.619224 -0.805704 -0.619224 0.999901 0 -9.95003e-08 0 
3 -1 0 0.492898 0.492898 786.97 0.805776 0.619136 -0.805776 -0.619136 0.999882 0 -1.33034e-07 0 
3 -1 0 0.492893 0.492893 812.124 0.805547 0.619088 -0.805547 -0.619088 0.99986 0 -1.77043e-07 0 
3 -1 0 0.492887 0.492887 838.441 0.80569 0.619158 -0.80569 -0.619158 0.999835 0 -2.44072e-07 0 
3 -1 0 0.492882 0.492882 865.996 0.805661 0.618983 -0.805661 -0.618982 0.999801 0 -3.35309e-07 0 
3 -1 0 0.492878 0.492878 894.871 0.805297 0.619115 -0.805297 -0.619115 0.999764 0 -7.11155e-07 0 
3 -1 0 0.492874 0.492874 925.156 0.805666 0.619075 -0.805666 -0.619075 0.999721 0 -6.25792e-07 0 
3 -1 0 0.49287 0.49287 956.947 0.805448 0.618973 -0.805448 -0.618973 0.999666 0 -8.67536e-07 0 
3 -1 0 0.492867 0.492867 990.349 0.805124 0.619048 -0.805124 -0.619048 0.999601 0 -1.20783e-06 0 
3 -1 0 0.492864 0.492864 1025.48 0.805391 0.619041 -0.805391 -0.619041 0.99953 0 -1.80763e-06 0 
3 -1 0 0.492861 0.492861 1062.45 0.805608 0.618832 -0.805608 -0.618832 0.999434 0 -2.56137e-06 0 
3 -1 0 0.492858 0.492858 1101.41 0.805428 0.619027 -0.805428 -0.619027 0.999323 0 -5.03082e-06 0 
3 -1 0 0.492856 0.492856 1142.5 0.805012 0.618966 -0.805012 -0.618966 0.999179 0 -6.05559e-06 0 
3 -1 0 0.492854 0.492854 1185.89 0.805491 0.618824 -0.80549 -0.618824 0.998994 0 -8.59873e-06 0 
3 -1 0 0.492852 0.492852 1231.74 0.805542 0.618993 -0.805542 -0.618993 0.998774 0 -1.21727e-05 0 
3 -1 0 0.492851 0.492851 1280.26 0.805562 0.618777 -0.805562 -0.618777 0.998581 0 -1.55854e-05 0 
3 -1 0 0.492849 0.492849 1331.66 0.805252 0.618981 -0.805252 -0.618981 0.998272 0 -2.2055e-05 0 
3 -1 0 0.492848 0.492848 1386.17 0.805403 0.618797 -0.805403 -0.618797 0.997898 0 -3.12296e-05 0 
3 -1 0 0.492847 0.492847 1444.06 0.805383 0.618825 -0.805384 -0.618825 0.997463 0 -3.92919e-05 0 
3 -1 0 0.492846 0.492846 1505.6 0.805182 0.618939 -0.805182 -0.618939 0.996876 0 -5.65427e-05 0 
3 -1 0 0.492845 0.492845 1571.13 0.805534 0.618823 -0.805534 -0.618823 0.99615 0 -8.13996e-05 0 
3 -1 0 0.492844 0.492844 1640.99 0.805517 0.618849 -0.805517 -0.618849 0.995232 0 -0.000107154 0 
3 -1 0 0.492843 0.492843 1715.57 0.805353 0.618892 -0.805353 -0.618892 0.994084 0 -0.000155382 0 
3 -1 0 0.492842 0.492842 1795.32 0.804597 0.618797 -0.804597 -0.618797 0.992367 0 -8.30409e-05 0 
3 -1 0 0.492842 0.492842 1880.73 0.805084 0.618819 -0.805084 -0.61882 0.990544 0 -0.000106609 0 
3 -1 0 0.492841 0.492841 1972.35 0.805518 0.618875 -0.805518 -0.618875 0.988117 0 -0.00016411 0 
3 -1 0 0.492841 0.492841 2070.79 0.805228 0.61893 -0.805228 -0.61893 0.985001 0 -0.000259653 0 
3 -1 0 0.49284 0.49284 2176.76 0.805441 0.618721 -0.805442 -0.618722 0.9812 0 -0.000359942 0 
3 -1 0 0.49284 0.49284 2291.04 0.805387 0.618896 -0.805386 -0.618896 0.975921 0 -0.000573281 0 
3 -1 0 0.49284 0.49284 2414.53 0.804712 0.61887 -0.804714 -0.61887 0.968999 0 -0.000908789 0 
3 -1 0 0.492839 0.492839 2548.26 0.80495 0.618622 -0.804951 -0.618622 0.9596 0 -0.00121996 0 
3 -1 0 0.492839 0.492839 2693.39 0.805511 0.618921 -0.805511 -0.618921 0.947504 0 -0.00189688 0 
3 -1 0 0.492839 0.492839 2851.26 0.805083 0.618777 -0.805082 -0.618777 0.931236 0 -0.00292659 0 
3 -1 0 0.492839 0.492839 3023.4 0.805402 0.618927 -0.805402 -0.618927 0.909864 0 -0.00411698 0 
3 -1 0 0.492838 0.492838 3211.6 0.805058 0.618625 -0.805058 -0.618625 0.878321 0 -0.00554795 0 
3 -1 0 0.492838 0.492838 3417.93 0.805502 0.61886 -0.805502 -0.61886 0.835848 0 -0.00805687 0 
3 -1 0 0.492838 0.492838 3644.78 0.804652 0.618771 -0.804655 -0.61877 0.778625 0 -0.00789556 0 
3 -1 0 0.492838 0.492838 3895 0.805486 0.618707 -0.805485 -0.618708 0.685293 0 -0.0109991 0 
3 -1 0 0.492838 0.492838 4171.91 0.805009 0.618872 -0.805011 -0.618873 0.552522 0 -0.0114774 0 
3 -1 0 0.492838 0.492838 4479.45 0.804928 0.618588 -0.804925 -0.618588 0.392302 0 -0.0104889 0 
3 -1 0 0.492838 0.492838 4822.32 0.805349 0.618829 -0.80535 -0.61883 0.1879 0 -0.00770262 0 
3 -1 0 0.492838 0.492838 5206.17 0.805191 0.618934 -0.805189 -0.618934 0.0140891 0 -0.00102636 0 
3 -1 0 0.492838 0.492838 5637.82 0.805373 0.618927 -0.805376 -0.618927 0.168056 0 -0.00670276 0 
3 -1 0 0.492838 0.492838 6123.72 0.805378 0.618765 -0.805375 -0.618763 3.35436 0 0.148555 0 
3 -1 0 0.492838 0.492838 6675.92 0.804999 0.618618 -0.805005 -0.618614 0.0801619 0 -0.00196515 0 
3 -1 0 0.492838 0.492838 4914.92 0.80529 0.618625 -0.80529 -0.618626 0.45594 0 -0.00847163 0 
3 -1 0 0.492838 0.492838 5308.87 0.805351 0.618822 -0.805352 -0.618822 0.980399 0 -0.000716756 0 
3 -1 0 0.492838 0.492838 5753.65 0.805128 0.618931 -0.805128 -0.618931 0.337886 0 -0.00837108 0 
3 -1 0 0.492838 0.492838 3944.36 0.80548 0.618434 -0.80548 -0.618435 0.642931 0 -0.00615693 0 
3 -1 0 0.492838 0.492838 4226.33 0.805375 0.618939 -0.805375 -0.618939 0.578731 0 -0.00733746 0 
3 -1 0 0.492838 0.492838 4540.01 0.805229 0.618246 -0.805229 -0.618246 0.344863 0 -0.00760651 0 
3 -1 0 0.492838 0.492838 4889.99 0.80506 0.618633 -0.805064 -0.618631 0.13519 0 -0.00632236 0 
3 -1 0 0.492838 0.492838 5282.12 0.805422 0.618862 -0.805421 -0.618862 0.00082248 0 -0.000122664 0 
3 -1 0 0.492838 0.492838 5723.47 0.803981 0.618921 -0.803988 -0.618921 0.965079 0 -0.00205886 0 
3 -1 0 0.492838 0.492838 6222.65 0.805069 0.618859 -0.805078 -0.618861 1.02447 0 0.00137163 0 
3 -1 0 0.492838 0.492838 6784.87 0.805515 0.618892 -0.805514 -0.61889 2.52309 0 0.0761758 0 
3 -1 0 0.492838 0.492838 7431.19 0.80462 0.618866 -0.804608 -0.618864 1.77126 0 0.227653 0 
3 -1 0 0.492838 0.492838 8177.11 0.805375 0.618797 -0.80538 -0.618801 7.94313 0 0.120343 0 
3 -1 0 0.492838 0.492838 9041.77 0.80475 0.618719 -0.804735 -0.618723 7.56669 0 0.130869 0 
3 -1 0 0.492838 0.492838 10051.8 0.805403 0.618689 -0.805414 -0.618692 7.394 0 0.134969 0 
3 -1 0 0.492838 0.492838 11211 0.805013 0.618606 -0.805002 -0.61861 6.4901 0 0.152553 0 
3 -1 0 0.492838 0.492838 11330.1 0.804801 0.618432 -0.804786 -0.618437 0.585701 0 -0.0298985 0 
3 -1 0 0.492838 0.492838 12752.4 0.805492 0.618359 -0.805498 -0.618357 0.0377587 0 -0.00640879 0 
3 -1 0 0.492838 0.492838 12752.4 0.804894 0.618775 -0.805117 -0.618689 0.0377587 0 -0.00640879 0 
